svm_type c_svc
kernel_type linear
nr_class 3
total_sv 3531
rho 0.186539 -0.374723 -0.503707
label 0 1 2
nr_sv 1549 1637 345
SV
0.2616746935997395 0.01231484714187348 3627:1 6005:1 11288:1 12954:1 15077:1 15612:1 16250:1 18143:1 18867:1 23086:1 
0.08347053286656701 0.02419450724688428 576:1 816:1 985:1 8227:1 11142:1 12083:1 12167:1 12332:1 15033:1 18200:1 22228:1 23179:1 23381:1 24102:1 
0.8294916330604568 0.2301966978655581 1809:1 6009:1 
0.247782563275311 0 2192:1 3006:1 5524:1 6823:1 10099:1 
0.1949755212643177 0 574:1 5870:1 14501:1 15620:1 17585:1 19167:1 19959:1 20254:1 
0.2256627330877947 0 81:1 1205:1 3836:1 4190:1 8220:1 8702:1 10273:1 11349:1 14657:1 15881:1 
0.3700536400079343 0 2692:1 3052:1 5870:1 17141:1 18067:1 
1 0.05896315200842259 4787:1 14462:1 14905:1 16805:1 20832:1 21926:1 
0.18338652350981 0.000854863072656219 628:1 3263:1 7009:1 10212:1 10632:1 12909:1 17005:1 20219:1 22928:1 
0.2642645674457735 0 1478:1 6860:1 8601:1 10786:1 15881:1 20885:1 
0.02970406012275355 0.02828378719386632 1489:1 17849:1 19249:1 19913:1 20952:1 
1 0.4782361987114395 3006:1 
0.3854759053534432 0.07318126895428406 1281:1 11658:1 18024:1 18179:1 
0.1206201481943346 0.07983673321929651 2475:1 4051:1 5051:1 5386:1 8095:1 8469:1 9586:1 16726:1 16824:1 
0.9783020004240821 0.02198104551629519 1423:1 9830:1 17010:1 21910:1 
0.4592491984123838 0 16755:1 
0 0.03771181548923545 3207:1 7214:1 7370:1 16375:1 18285:1 19357:1 19487:1 22101:1 
0 0.03436011042160615 3781:1 11228:1 13221:1 13870:1 15851:1 17141:1 
0.03021407677788056 0 2477:1 3020:1 3189:1 3506:1 3836:1 6746:1 7088:1 11415:1 12285:1 15881:1 17406:1 19394:1 20017:1 
0 0.0393198854374989 60:1 2175:1 2562:1 4639:1 5844:1 5955:1 6808:1 17947:1 18254:1 22857:1 
0 0.01387141490931854 2662:1 5533:1 13750:1 22099:1 22250:1 23598:1 23756:1 
0.4738570450782509 0.1363325350957397 7875:1 7912:1 19475:1 20110:1 
1 0.03688774794543002 5255:1 6009:1 11313:1 16095:1 
0.5931967902468834 0.3125277248180798 11287:1 13732:1 
0.03579924930197147 0 5322:1 6375:1 7666:1 15869:1 18250:1 19274:1 
0.17943068287835 0 2484:1 3520:1 4004:1 4027:1 5322:1 8319:1 9884:1 10608:1 10659:1 11773:1 12031:1 13097:1 13701:1 15584:1 17943:1 19548:1 20952:1 23075:1 
0.08773810794271239 0.05844229082624118 3141:1 3375:1 6891:1 8160:1 8487:1 15400:1 15903:1 16288:1 16358:1 20446:1 20625:1 
0.4848217347494391 0.1250163594110726 3434:1 8563:1 13334:1 15524:1 18425:1 
1 0.1542774988150978 9538:1 17908:1 18965:1 
0.3928473747756573 0.07322623898404583 43:1 8105:1 9620:1 10307:1 16887:1 17210:1 19261:1 20506:1 
0.1274409857092166 0 819:1 2242:1 2493:1 5667:1 10648:1 15881:1 17465:1 18496:1 18595:1 20299:1 23447:1 
0.7417903376835972 0.08280088775910635 4336:1 10471:1 19479:1 
0.01776646129038632 0.04170006216240334 2849:1 4555:1 10506:1 11266:1 13228:1 14874:1 17601:1 18745:1 23420:1 24013:1 
0.1992321273295421 0.1034405045251361 2092:1 3642:1 10699:1 19499:1 19764:1 
0.01417080036869166 0.1097333371177015 618:1 3829:1 4198:1 6995:1 8587:1 8804:1 11106:1 12230:1 12412:1 13022:1 15215:1 17262:1 22502:1 24021:1 
0.05141030050647834 0.1948909661811322 1694:1 1766:1 3773:1 8861:1 9448:1 19919:1 20308:1 21821:1 
0 0.01427666140534452 1646:1 3886:1 4787:1 5322:1 6294:1 8888:1 12064:1 12638:1 20674:1 20894:1 
0.07480300052962149 0 1668:1 2705:1 4180:1 7230:1 13387:1 19115:1 19167:1 23869:1 
0.05247796275489954 0.005232589554540387 4103:1 4174:1 6335:1 6625:1 6675:1 7676:1 7967:1 7987:1 9857:1 9940:1 10335:1 10909:1 11968:1 12574:1 13780:1 15353:1 16301:1 18210:1 
0.2409422393406814 0 1154:1 3581:1 8287:1 15881:1 17666:1 18350:1 21058:1 22613:1 
0.05036499909487534 0.02542356921289454 2532:1 4354:1 4630:1 8231:1 9655:1 10176:1 11549:1 11869:1 13241:1 14018:1 15655:1 19475:1 21482:1 22593:1 
0.06428943015867686 0 5176:1 5870:1 6260:1 8160:1 14885:1 19167:1 
0.1048331950042805 0.04191390411748309 2700:1 3037:1 6986:1 10052:1 22882:1 
0.2773664344836537 0.07849756694438169 419:1 6260:1 6802:1 8927:1 14504:1 15244:1 18005:1 18496:1 18509:1 19891:1 22188:1 22860:1 23737:1 
0.6534644392658013 0.06194564615253964 3813:1 5045:1 14240:1 14991:1 
0.8507681366384864 0 4987:1 15750:1 19167:1 20028:1 
0 0.1055223376673402 819:1 2493:1 6294:1 7088:1 7719:1 7892:1 9658:1 11709:1 13013:1 22830:1 23689:1 24291:1 
0.1037110913000565 0 4565:1 4787:1 5849:1 8013:1 11298:1 14078:1 15011:1 15299:1 16808:1 16875:1 16983:1 17555:1 
0.1036081256191042 0.1485378359992166 861:1 8588:1 9143:1 19731:1 19953:1 23154:1 23223:1 
0.5051848508954884 0 15482:1 15698:1 16626:1 17224:1 
0 0.0264207965035128 2053:1 2639:1 7900:1 13031:1 14143:1 16358:1 18939:1 23038:1 
0.07102335018470034 0.049744553995376 908:1 1613:1 1879:1 14098:1 14899:1 15329:1 21011:1 21953:1 
0.1821269116575197 0 3655:1 7088:1 9971:1 14460:1 15988:1 19167:1 
0.8034193759870734 0 485:1 2376:1 2852:1 6552:1 19167:1 
0.1469680233489983 0.003374476788777631 14:1 43:1 308:1 1227:1 10659:1 12718:1 15655:1 15940:1 21838:1 
0.1516697101732622 0 2091:1 2751:1 6808:1 8439:1 10868:1 11897:1 16480:1 17666:1 17908:1 19388:1 
0.06579958917285601 0.02216365602706502 574:1 4498:1 5629:1 8971:1 9340:1 15663:1 17149:1 20205:1 20710:1 22720:1 23837:1 
0.1267246401923936 0.08110736833091026 10335:1 11270:1 13979:1 21707:1 22698:1 23928:1 
0.2210911652049313 0 864:1 2192:1 4058:1 6922:1 8737:1 8892:1 10899:1 11335:1 13908:1 16726:1 19984:1 21462:1 21908:1 
0.2264207065541906 0.03033950789227615 3865:1 16342:1 17092:1 17337:1 20012:1 20142:1 22212:1 
0.2897106764711515 0.01612860334104987 1972:1 3807:1 4140:1 6788:1 7262:1 8095:1 20612:1 23593:1 
0.1085583002607955 0 2629:1 3594:1 5415:1 6039:1 10303:1 11250:1 12403:1 14113:1 18764:1 22331:1 
0.007409129280992409 0 4180:1 4967:1 5958:1 10444:1 12212:1 13173:1 14078:1 19167:1 21379:1 24058:1 
0 0.0201054694685853 370:1 985:1 3492:1 5900:1 6920:1 8601:1 15664:1 18559:1 18611:1 21994:1 22642:1 
0.3349415162167692 0.1276701391039608 22928:1 23109:1 23483:1 24137:1 
1 0 4357:1 19167:1 21616:1 24291:1 
0.05379557879723338 0 1987:1 4165:1 6553:1 9345:1 18104:1 20103:1 
0 0.06432011808985712 442:1 824:1 4639:1 6688:1 12259:1 15655:1 22583:1 
0.1952714579727251 0 4787:1 8688:1 11600:1 15881:1 24185:1 
0.1276923312982754 0 105:1 430:1 2558:1 3805:1 6645:1 7253:1 15881:1 16375:1 16849:1 19702:1 
0.1209271057749826 0 2446:1 3337:1 5415:1 6196:1 7485:1 8804:1 13391:1 15329:1 15881:1 17653:1 23666:1 24113:1 
0.5371446427935572 0.564513197255488 16442:1 
0.4189492892077643 0 2660:1 4555:1 11187:1 12366:1 15437:1 18742:1 19167:1 
0.2370583019333525 0.00465384929846217 4592:1 6781:1 12059:1 14620:1 15832:1 15931:1 19530:1 23402:1 
0.1169525554908245 0 55:1 1033:1 1184:1 1853:1 4076:1 4973:1 7866:1 10608:1 19167:1 21734:1 23468:1 
1 0 5322:1 6763:1 9807:1 14141:1 17098:1 18144:1 19167:1 
0.3360906546156022 0 17849:1 21178:1 23446:1 
0.1027888425188228 0.06957708103458943 9308:1 10021:1 10761:1 16513:1 18711:1 21197:1 
0.3610095611442483 0 3857:1 4830:1 4973:1 5322:1 6333:1 14442:1 15881:1 16029:1 16260:1 18608:1 
0.06877145515768117 0 1176:1 2247:1 4652:1 11436:1 12079:1 12718:1 15240:1 18868:1 19184:1 19800:1 20706:1 21755:1 21758:1 22595:1 23207:1 
0.08254855932902197 0.01200481515059738 5736:1 10463:1 14960:1 16130:1 16501:1 16682:1 17763:1 21285:1 21439:1 21991:1 22478:1 22718:1 
1 0 19167:1 20894:1 
0.2422831334213626 0.1987251402304282 5768:1 6555:1 13812:1 16881:1 18005:1 18565:1 19257:1 23186:1 
0.2072708800583923 0.02809691288174769 6623:1 8168:1 8800:1 14859:1 15863:1 17412:1 22410:1 
0.1490962439200249 0.2027080810760152 3367:1 5887:1 8150:1 9009:1 11790:1 14095:1 19000:1 
0 0.0347821306009976 1857:1 1899:1 2687:1 4432:1 6834:1 11957:1 13423:1 15090:1 15881:1 19639:1 19693:1 19718:1 22462:1 
0.3778918647080289 0 2743:1 2811:1 5196:1 6196:1 11229:1 13701:1 14342:1 16118:1 18608:1 23667:1 
0.1756957850179146 0.04296249505378545 1415:1 3044:1 4469:1 6176:1 6403:1 10807:1 12394:1 14460:1 20457:1 
0.6368504224136822 0.06836769266259535 4388:1 16626:1 16718:1 21436:1 
0.3092225707580417 0 1189:1 12089:1 14296:1 15869:1 17205:1 18132:1 
0.3440297823446017 0.06515017771517588 3493:1 3539:1 4448:1 5024:1 7798:1 13895:1 15090:1 16602:1 17310:1 21996:1 
0.1568261020182578 0 2462:1 2639:1 3833:1 5035:1 12251:1 17396:1 17431:1 19167:1 20003:1 21158:1 21582:1 
0.8390161556235455 0 4787:1 6788:1 17152:1 
0.08384244021888022 0 1423:1 1650:1 6336:1 9960:1 10099:1 10978:1 12223:1 12827:1 14654:1 15706:1 17543:1 17545:1 20088:1 20491:1 21400:1 21965:1 
0.25506553441409 0.003411311551677971 908:1 2254:1 6196:1 6728:1 7940:1 9289:1 9727:1 10078:1 13737:1 19445:1 20103:1 23806:1 
0.7643903472732239 0 5322:1 6375:1 14435:1 20888:1 
0.3455476278827928 0 2990:1 3946:1 4830:1 5045:1 5659:1 12535:1 14420:1 18261:1 21975:1 
0.3404312615960854 0 3578:1 5322:1 6260:1 6913:1 16726:1 18608:1 19748:1 22238:1 23232:1 
0.1967935665408715 0 2639:1 3043:1 4787:1 5322:1 5745:1 7112:1 7922:1 10735:1 11243:1 15704:1 16441:1 18259:1 18902:1 22331:1 23029:1 
0 0.001853811574772949 2604:1 4092:1 13412:1 16682:1 22331:1 
0.5671098674020976 0 1973:1 2933:1 5003:1 5266:1 6986:1 10135:1 10212:1 10608:1 10977:1 14794:1 15141:1 15276:1 
0.3072975400417355 0.0714868838038762 654:1 1423:1 5176:1 12193:1 
0.082285232696223 0 1879:1 3769:1 6242:1 7648:1 12402:1 12444:1 13144:1 13356:1 14098:1 15737:1 15881:1 17294:1 18022:1 21162:1 
0.3680265828176522 0 2484:1 6763:1 8239:1 9334:1 10099:1 10728:1 13852:1 20703:1 22104:1 22419:1 
0.01732408709256725 0.08416983303273944 4653:1 8311:1 10983:1 13147:1 14980:1 15026:1 15409:1 16173:1 17254:1 20597:1 21856:1 
0.05728778986097758 0 1222:1 4478:1 4602:1 5019:1 5196:1 6763:1 8727:1 10099:1 12436:1 13857:1 14212:1 18042:1 19173:1 20894:1 21025:1 22261:1 22621:1 22712:1 
0.2491118887857127 0.05934564735305502 654:1 982:1 2505:1 8726:1 13242:1 14640:1 21298:1 22538:1 
0.549820427198793 0 1189:1 1697:1 8588:1 12718:1 12759:1 18040:1 
0.1259664339240691 0.08627767749783044 8322:1 12679:1 12900:1 13327:1 14059:1 15500:1 21472:1 
0.2764817343045015 0.02326650775406104 225:1 2249:1 5159:1 6137:1 14243:1 21763:1 22228:1 22615:1 
0.3112167721312136 0.08385246685288156 2662:1 3784:1 6154:1 15213:1 17593:1 20969:1 
0.1605922338432347 0.07035290261405638 654:1 5854:1 7990:1 8160:1 9378:1 15334:1 16673:1 17937:1 19483:1 20032:1 20706:1 
0.08954856901136649 0.02945735116560687 173:1 3384:1 8609:1 9440:1 10961:1 11046:1 13281:1 23609:1 23728:1 
0.3363312606447354 0 2100:1 2193:1 8092:1 15401:1 17747:1 19011:1 19167:1 20584:1 21469:1 
0.2392479092757015 0.08606288864839642 3260:1 7820:1 8607:1 11942:1 14295:1 15655:1 16868:1 22531:1 
0.9577032912677143 0.1028863143501617 3533:1 16626:1 17164:1 18565:1 
0.2412970365098651 0 4555:1 5322:1 15394:1 19924:1 23174:1 
0.2481160457014335 0 1314:1 9955:1 16622:1 18006:1 19167:1 21945:1 
0.00203552068894081 0 2249:1 3832:1 10668:1 12403:1 12647:1 18608:1 20564:1 21075:1 23535:1 
0.1323935013886881 0 910:1 1189:1 1259:1 4787:1 8194:1 9341:1 10815:1 14491:1 17493:1 18734:1 19012:1 
0.06279467029413174 0.004414327317575456 2705:1 3043:1 4371:1 6479:1 9398:1 18057:1 21379:1 
0.1050999098393387 0.0316772430495094 120:1 2691:1 4770:1 9122:1 10911:1 12383:1 13509:1 14992:1 15315:1 20298:1 21226:1 23282:1 
0 0.005393569955466263 11:1 43:1 370:1 444:1 3703:1 3851:1 8036:1 9751:1 11650:1 12472:1 14000:1 14786:1 17543:1 18046:1 18682:1 19891:1 21529:1 
0.231610240890653 0.1875962948118452 2376:1 6260:1 7955:1 9166:1 10265:1 15769:1 21477:1 23715:1 
0.4247542860418304 0.03157544373111931 1189:1 5652:1 6196:1 15409:1 18466:1 18734:1 20934:1 
0.004782326814068618 0 11:1 816:1 1208:1 3865:1 7922:1 11231:1 11826:1 13045:1 15335:1 15881:1 
0.3507416020053574 0 370:1 1189:1 6746:1 8295:1 12662:1 13781:1 16816:1 21274:1 21953:1 22469:1 23117:1 
0.08653066682602287 0.04721254872216373 2451:1 6738:1 8657:1 9825:1 10710:1 19189:1 19270:1 21325:1 21647:1 
0.2062016876034311 0.004746337384411617 5140:1 8516:1 10441:1 10507:1 12089:1 13679:1 15007:1 
0.09679976990324374 0 3701:1 4848:1 5196:1 6881:1 14143:1 15402:1 20620:1 
0.04422489131424793 0 681:1 5322:1 7213:1 10558:1 10600:1 13221:1 20710:1 22048:1 22104:1 22801:1 23646:1 
0.6871293596535981 0.5591232208381604 6405:1 15281:1 
0.1571131200886584 0.05359471853107404 1052:1 2032:1 4111:1 12649:1 16180:1 16799:1 18095:1 22377:1 24191:1 
0.09656159457868095 0 2399:1 2430:1 6986:1 7065:1 7438:1 8073:1 9836:1 11228:1 17554:1 
1 0 2867:1 5410:1 5533:1 6423:1 15881:1 16923:1 23604:1 
0.4618713203134124 0 8160:1 9143:1 15332:1 19167:1 21764:1 22482:1 23896:1 
0.00856347992301632 0 63:1 105:1 3006:1 3370:1 13592:1 16130:1 
0.322122278308434 0 1010:1 5244:1 8865:1 9186:1 9960:1 13074:1 15806:1 15881:1 16848:1 17023:1 18565:1 19335:1 23014:1 
0.2276095185964613 0 1325:1 1423:1 3723:1 4525:1 6375:1 8370:1 9622:1 16066:1 17548:1 18761:1 19093:1 
0.4247442226323664 0.1250208390570451 7572:1 11565:1 23380:1 
0.1706595818779765 0 763:1 3951:1 5196:1 5309:1 5322:1 6393:1 8520:1 14254:1 18057:1 21853:1 23402:1 
1 0.01177834581285771 4830:1 12291:1 13184:1 23719:1 
0 0.06045535919400729 1751:1 2054:1 14795:1 16341:1 16442:1 21351:1 22237:1 23385:1 
0.1692940524978744 0.007984121640427021 1205:1 9930:1 10174:1 10664:1 15026:1 16269:1 20712:1 20727:1 21853:1 22294:1 22378:1 23249:1 
0.1099404871936898 0 1189:1 10212:1 12055:1 13637:1 14000:1 15869:1 17465:1 19282:1 
0 0.0289252752131102 4444:1 13604:1 14414:1 14982:1 15190:1 16711:1 
0.07138198291727406 0.06565920524623209 5322:1 5533:1 6254:1 6260:1 6781:1 10923:1 11935:1 14620:1 21616:1 
0.6510273009224329 0.1822561600650193 12718:1 13452:1 18185:1 
0.216241414689067 0.0933558136533916 1183:1 1469:1 5813:1 10805:1 17559:1 23420:1 24115:1 
0.3733868961501471 0.05604498762317308 780:1 8537:1 12661:1 17052:1 
0.3678675144655565 0 5022:1 5366:1 8861:1 14000:1 14342:1 14789:1 15747:1 17299:1 
0 0.2226150890331682 4592:1 6738:1 
0.7720684461911769 0 763:1 3072:1 3849:1 6447:1 9530:1 11447:1 15281:1 15881:1 17781:1 17909:1 18409:1 
0.06896174906916859 0 156:1 1189:1 8923:1 20594:1 21311:1 
1 0 1423:1 10099:1 16149:1 
1 0 6986:1 19167:1 
0.1812238975421827 0 370:1 6645:1 6922:1 10131:1 12182:1 13300:1 15881:1 16668:1 18005:1 22438:1 23547:1 
0.3026842140290816 0 916:1 5322:1 7705:1 10979:1 21526:1 
0.6751361049460599 0.03113401477443062 1588:1 2558:1 5045:1 
0.1435283963551977 0 83:1 1593:1 3581:1 9175:1 12718:1 14670:1 18844:1 22440:1 22961:1 23373:1 
0.607187598373745 0.02853164530561651 2446:1 6260:1 10646:1 14620:1 17267:1 20412:1 
0.6435007898197303 0.007710580372857142 3185:1 10038:1 15881:1 21566:1 23654:1 
0.6206746463215418 0.09996709090900645 1137:1 4623:1 9850:1 10099:1 12647:1 15403:1 18005:1 18801:1 22260:1 
0.2067605468448613 0.1164417740722442 4357:1 7812:1 10085:1 17167:1 20318:1 21740:1 21975:1 
0.09067427051082284 0 10099:1 15329:1 15881:1 
0.01524919097397694 0 1423:1 3848:1 5531:1 14631:1 15664:1 15736:1 19702:1 21975:1 22654:1 
0.4291875639169875 0.6221238855494357 446:1 14342:1 
0.383327943698879 0 6375:1 8228:1 10198:1 15881:1 17585:1 18025:1 
0.08976831729235643 0.0002601186123216521 4436:1 7396:1 9645:1 12718:1 23216:1 
0.07698633183605236 0.01216940046542728 2989:1 8287:1 12570:1 14342:1 18534:1 18966:1 21633:1 22964:1 24287:1 
0.2841468611088455 0.007038955832271755 1631:1 1902:1 8264:1 9491:1 11656:1 12036:1 16342:1 17756:1 18984:1 20279:1 23187:1 23468:1 24184:1 
0.2565214035769066 0 2692:1 5592:1 9495:1 13629:1 19167:1 20005:1 20563:1 
0.3929846103258205 0 10099:1 12718:1 21653:1 21775:1 
0.1182058559949855 0 173:1 824:1 1154:1 1871:1 3384:1 4274:1 5611:1 9314:1 11427:1 18396:1 
0.1068370019801029 0 1631:1 4278:1 4691:1 5921:1 6159:1 8925:1 16175:1 18369:1 18608:1 20148:1 
0.3420796507801994 0.09990752275817422 11:1 2660:1 3164:1 4098:1 8606:1 14578:1 
0.3280512874344922 0.1174576986583657 1198:1 4165:1 8008:1 10085:1 15552:1 19388:1 
0 0.1061297814128354 4608:1 18311:1 
0.5425687445440156 0.07457581472660942 5283:1 13999:1 14885:1 20861:1 
0.1554849241475235 0 5870:1 6781:1 15881:1 
0.1881206001611668 0.04636242134475985 2242:1 3874:1 7253:1 13077:1 14620:1 
0.08710340630406646 0.003346249969318727 4184:1 6579:1 7451:1 12518:1 15842:1 17336:1 18040:1 18441:1 20488:1 21706:1 
0.3149732476722058 0.1227301711367201 3289:1 5797:1 8877:1 11512:1 17543:1 
0.2050753422724128 0.05237120823223668 283:1 370:1 1451:1 3430:1 3913:1 10049:1 11117:1 15461:1 16321:1 18225:1 18461:1 18466:1 19361:1 20053:1 22778:1 23401:1 24085:1 
0.09586917924681762 0.04656115679272911 1587:1 5665:1 7544:1 7878:1 10608:1 12031:1 12474:1 23424:1 
0.2100771284591033 0 6251:1 6372:1 6405:1 13900:1 14212:1 15251:1 16387:1 19984:1 21726:1 
0.4603443991253833 0 13532:1 15050:1 15881:1 18305:1 18320:1 18418:1 
0.5590374229192996 0.05245268027943563 4318:1 10310:1 16029:1 21970:1 22394:1 
0.1310019938097176 0 2430:1 2477:1 11228:1 13814:1 16260:1 19825:1 22733:1 23195:1 
0.1582346731622404 0 1318:1 1319:1 2401:1 2808:1 2898:1 3646:1 8071:1 8888:1 12718:1 14435:1 17908:1 18241:1 
0.2894527859393127 0 6196:1 11228:1 12332:1 13545:1 18391:1 22583:1 
0.01287589606365063 0 7218:1 13221:1 13406:1 
0.0006117242183903439 0 346:1 1340:1 5262:1 6370:1 10646:1 23369:1 
0.4382400645548958 0.06747002462949769 2548:1 4627:1 9645:1 13820:1 14786:1 20508:1 
1 0.6250744360018893 18608:1 
0.9693132117697105 0 1154:1 15215:1 19167:1 20214:1 22501:1 
0.1570820695505304 0 3849:1 5877:1 6763:1 11494:1 13423:1 15251:1 15881:1 22615:1 
0.004940032076649947 0 776:1 2558:1 2826:1 4279:1 7330:1 10725:1 12144:1 16962:1 17118:1 17216:1 20141:1 22928:1 23391:1 24227:1 
0.02828899031558649 0.05551195273614342 6137:1 6260:1 8757:1 10459:1 10605:1 10782:1 14620:1 17317:1 18642:1 21064:1 21825:1 22583:1 
0.7880603069949562 0 446:1 20594:1 21941:1 22181:1 
0.02882378142753318 0.01517015353272034 1034:1 2191:1 2837:1 5133:1 5143:1 5368:1 6024:1 6929:1 8189:1 11966:1 12707:1 13870:1 14312:1 14986:1 18285:1 22371:1 
0 0.1709141977909348 6550:1 16573:1 23144:1 
0.8632815629180726 0 5033:1 13641:1 17828:1 20951:1 
0.1429569829503593 0 255:1 1580:1 6196:1 7887:1 14456:1 15185:1 15584:1 20951:1 
0.03862465804719433 0 3093:1 4608:1 5322:1 7236:1 10899:1 12807:1 15881:1 15998:1 16071:1 
0.02204184085506336 0.03996317108460794 480:1 3243:1 3955:1 9558:1 9866:1 9993:1 10757:1 11313:1 11888:1 14018:1 14420:1 16048:1 20058:1 20863:1 21351:1 22207:1 22292:1 
0.9458066712895461 0.3112859272667476 10593:1 17224:1 21373:1 
0.01172187178287194 0 2483:1 3676:1 7951:1 11053:1 11349:1 15411:1 20567:1 23797:1 
0.4272835035045089 0.08299159792431382 1630:1 3263:1 6762:1 7897:1 10915:1 11766:1 13485:1 14957:1 15176:1 16861:1 19167:1 23705:1 
0.3915791070705681 0.03995957648574756 1762:1 2376:1 4898:1 9067:1 9713:1 10933:1 14943:1 15238:1 22838:1 
0 0.9185226225588298 1154:1 6294:1 8823:1 
0 0.04307946271475194 763:1 3072:1 13447:1 15869:1 
0.5095982497580271 0.07730951338127429 6423:1 8484:1 19167:1 21266:1 21706:1 
0.158696622660061 0 1024:1 1908:1 3754:1 4896:1 5063:1 6871:1 7333:1 10099:1 16250:1 20078:1 23029:1 
0.2193777219405492 0.04001684717422161 705:1 7612:1 8845:1 16512:1 17635:1 18179:1 20284:1 20642:1 
0.2151620270997362 0 216:1 4967:1 6308:1 13242:1 19167:1 22694:1 
0.4868966874363809 0.0930894826887656 3189:1 7180:1 7214:1 17559:1 
0.08121543636176695 0.01963778120890496 3320:1 8289:1 9406:1 9751:1 12133:1 12909:1 13345:1 16055:1 16207:1 19359:1 19403:1 21198:1 
0 0.3044686444012298 60:1 916:1 7083:1 23615:1 
0.1768473942563456 0 381:1 681:1 10099:1 14227:1 23722:1 
0.2200879715819538 0.004275602600851128 1231:1 2361:1 6849:1 7735:1 7783:1 9889:1 10648:1 10699:1 12788:1 13771:1 20033:1 23200:1 
0.9281331973975989 0.1150807484624667 9090:1 14212:1 18713:1 19984:1 
0.8204484681947776 0.05429627416736382 654:1 2064:1 7376:1 8010:1 9345:1 19915:1 23802:1 
0.3949929565156816 0.1271578377312168 60:1 1137:1 3567:1 4828:1 12862:1 18321:1 21489:1 21763:1 21821:1 
0.03366807165690774 0 2755:1 2838:1 4297:1 8846:1 11466:1 14620:1 18112:1 19150:1 21352:1 22316:1 
0.09221086729666027 0 2558:1 3836:1 6383:1 17229:1 17636:1 17890:1 18950:1 20090:1 
0.1044823451615295 0.04390474650177876 4443:1 5436:1 11264:1 14059:1 17793:1 18888:1 
0.4750987196631952 0.04065726398794324 6550:1 20969:1 22237:1 
0.9116956622949082 0.09425316115960014 6344:1 10300:1 11769:1 16029:1 18321:1 
0.002553664692239567 0 1154:1 1205:1 2048:1 10616:1 19318:1 19913:1 
0.1659688661369621 0 4566:1 5287:1 6210:1 7070:1 8315:1 8716:1 10264:1 11480:1 14420:1 15881:1 19065:1 19069:1 20103:1 23465:1 
0.4120184915484249 0 4151:1 4165:1 12402:1 13823:1 14155:1 18179:1 20130:1 22501:1 
0.592636495779506 0 1208:1 2910:1 4416:1 5713:1 7376:1 7878:1 10785:1 12957:1 15069:1 17141:1 17395:1 22556:1 
0.3685638136191785 0.03368139848560019 60:1 5325:1 7420:1 8040:1 15881:1 16149:1 19456:1 
1 0 1189:1 14820:1 
0.4518334639074392 0 7461:1 10983:1 15588:1 23942:1 
0.2030270050773251 0 1189:1 2113:1 15869:1 20635:1 20884:1 
0.8639578478260952 0 6251:1 9924:1 10728:1 12089:1 19516:1 21005:1 
0.6041377433961983 0 4135:1 6294:1 6375:1 7570:1 16626:1 18682:1 19167:1 20467:1 20584:1 23526:1 23722:1 
0.2036533186983082 0.02849234818602993 3172:1 7180:1 8010:1 8228:1 18165:1 19704:1 24024:1 
0.6797682112244142 0.0488196141574093 372:1 3638:1 15881:1 16564:1 19897:1 20969:1 24102:1 
0.2520850482816749 0.1436003679935613 1602:1 1712:1 7815:1 18821:1 
0 0.06075519211807625 279:1 6746:1 8939:1 15771:1 17408:1 22187:1 
0.2250610319138784 0 1154:1 1931:1 2053:1 2692:1 3805:1 7884:1 10899:1 11404:1 14127:1 14192:1 16573:1 19326:1 
0.05538312471902047 0 654:1 2318:1 3549:1 6788:1 8008:1 10122:1 15881:1 17802:1 17968:1 19614:1 
0.3183698368246543 0 1189:1 2796:1 3640:1 4848:1 6929:1 9762:1 9955:1 10978:1 15277:1 16875:1 17519:1 
0.3997678582279431 0.005290264631943704 3492:1 9600:1 21351:1 22048:1 23628:1 
0.06255985937972937 0 1478:1 6873:1 6883:1 9945:1 11087:1 14995:1 21745:1 22062:1 22932:1 
0.3420726972674917 0 2483:1 6781:1 8164:1 15881:1 21897:1 24291:1 
1 0 1872:1 1954:1 14078:1 
0.2324177257070666 0.03187929505917148 63:1 3370:1 5380:1 9823:1 12718:1 13041:1 13347:1 13592:1 13687:1 18611:1 
0.6585796696973569 0.2817328972026368 4787:1 22821:1 
0.3876417121677347 0 44:1 11958:1 15281:1 15482:1 17456:1 18608:1 21910:1 
0 0.0002066662792763417 8737:1 10533:1 12521:1 
0.05265906257249527 0.0597788192235953 628:1 2376:1 4687:1 6451:1 7454:1 8466:1 19541:1 24146:1 
0.3536456905326132 0.112614065377663 2682:1 3695:1 9225:1 14869:1 16250:1 
0.05051536580577224 0 37:1 5726:1 9674:1 13972:1 14908:1 14975:1 15276:1 18649:1 19167:1 21559:1 24005:1 
0.06185233767276862 0 3493:1 6137:1 8222:1 8630:1 12625:1 13812:1 15723:1 16146:1 16509:1 19167:1 20894:1 21613:1 21632:1 22753:1 22777:1 23999:1 
0.7027175652811859 0 2705:1 6094:1 6260:1 8160:1 13355:1 16358:1 18294:1 18764:1 23029:1 
0.2142987244771965 0.02607830812400573 53:1 4357:1 7189:1 11447:1 12089:1 13052:1 14523:1 16572:1 21234:1 22058:1 23373:1 23836:1 
0.5716034050029473 0.07982781476114177 4558:1 6199:1 6777:1 7349:1 11275:1 12270:1 14916:1 15957:1 17672:1 19210:1 22486:1 
0.1979076328217166 0 1423:1 6196:1 6655:1 10348:1 12285:1 16337:1 21252:1 
0.6134759703226282 0.1339466587778544 1015:1 7460:1 8497:1 15885:1 19167:1 21582:1 
0.002267216176908135 0 654:1 3390:1 6260:1 6545:1 6738:1 6913:1 8139:1 12394:1 13013:1 16849:1 20103:1 20990:1 
0 0.08124134073361494 824:1 3043:1 12421:1 13943:1 14155:1 15044:1 22910:1 
0.0001744829986833632 0.00516981162377048 4205:1 4986:1 6336:1 7657:1 8435:1 10099:1 11652:1 12192:1 15435:1 17770:1 20749:1 21503:1 21852:1 23942:1 24308:1 
0.1338777020224847 0.05456372836764024 576:1 3043:1 8557:1 11035:1 12217:1 18606:1 19737:1 23445:1 
0.6874199711122341 0.3381401055954234 6688:1 9175:1 16987:1 24169:1 
0.5261529298084446 0 7296:1 8440:1 12554:1 15409:1 18929:1 19984:1 20130:1 21706:1 22167:1 22446:1 
0.533325349120886 0 3550:1 8361:1 11840:1 15277:1 15881:1 18179:1 21764:1 23230:1 
0.9341957078994482 0 3435:1 10212:1 13961:1 19008:1 19167:1 
0.8544657813697444 0.1731561547745348 14171:1 14795:1 19913:1 
0.09945084853010949 0.08217223850822407 1190:1 4570:1 16947:1 17981:1 20333:1 
0.3958737633096012 0.00421018003344971 3676:1 14937:1 21581:1 21975:1 23223:1 
0.6130995512517369 0.1198619667167468 225:1 5174:1 7873:1 23141:1 
0 0.07077595531869366 105:1 2558:1 8470:1 11429:1 12182:1 18104:1 19008:1 19937:1 20497:1 20546:1 
0.4465207331121307 0 5322:1 5554:1 6260:1 6319:1 11228:1 13796:1 14420:1 16591:1 16887:1 17432:1 19388:1 
0.2050546985014292 0.06923758798998055 1346:1 7811:1 9377:1 14182:1 14840:1 15881:1 22380:1 
0.5904762742745821 0 4478:1 5530:1 15655:1 16869:1 19167:1 19662:1 20338:1 
0.07101205129115783 0 1008:1 5324:1 7838:1 9147:1 10583:1 12291:1 16726:1 21351:1 
0.401271108076536 0.0970751813031262 6361:1 6986:1 12135:1 14342:1 
0.1929827951191412 0.2778311364278951 2662:1 14414:1 
0.01139593346761463 0 1189:1 3292:1 3858:1 5481:1 6882:1 15841:1 16266:1 17421:1 20128:1 20539:1 
0.1066671973917142 0.02348925555305509 48:1 156:1 3302:1 4331:1 7662:1 8816:1 13840:1 16661:1 17543:1 18565:1 21076:1 21158:1 21868:1 23778:1 
0.1108829559579567 0.05196856503115965 1580:1 3554:1 3635:1 6277:1 6849:1 8855:1 9628:1 20058:1 23981:1 
1 0.03759544540181579 1154:1 10307:1 11950:1 13093:1 19820:1 
0.0006758732149461918 0.02317909533832504 370:1 2918:1 11480:1 14767:1 15440:1 15482:1 16718:1 16964:1 20861:1 
0.320056027932033 0 266:1 7844:1 8417:1 10614:1 13522:1 14789:1 15057:1 16660:1 17391:1 17585:1 19322:1 20678:1 24249:1 
0 0.02653294476194672 3043:1 7560:1 14043:1 19178:1 19982:1 20008:1 21047:1 21189:1 
0 0.02958381051090083 2483:1 4608:1 12996:1 15583:1 
0.789479876918786 0 11314:1 18608:1 
0.3804991635665981 0.2354536919210914 1985:1 8857:1 14609:1 
0.2503975929316049 0 1357:1 4850:1 5958:1 17543:1 19167:1 22292:1 
0.2509062065173491 0.09629473887533188 208:1 2003:1 5611:1 15807:1 19477:1 
0.6999040920659337 0 1189:1 3792:1 9956:1 
0.02505005026167543 0 469:1 1154:1 6260:1 8317:1 8970:1 10906:1 12402:1 12913:1 14565:1 15881:1 18565:1 20832:1 22222:1 
0.5246441722874844 0 7525:1 12125:1 19984:1 22583:1 
0.07530464020173817 0.05047999040290514 910:1 2558:1 10330:1 17564:1 
0.4542567323089597 0.05542583476688843 6375:1 7922:1 8701:1 9658:1 20678:1 23108:1 
0.2205378117250668 0 60:1 654:1 1438:1 3362:1 3516:1 3805:1 5775:1 7600:1 9522:1 9813:1 15881:1 16947:1 20115:1 22036:1 23322:1 
0.605728101873646 0.184820144786506 16899:1 19326:1 20420:1 
1 0.1372880358000252 2916:1 15156:1 19108:1 
0.9142266852540169 0 14123:1 19167:1 20596:1 
0.1249736157188265 0 1954:1 1987:1 4675:1 5870:1 6763:1 7374:1 7460:1 14342:1 15181:1 15881:1 15957:1 16852:1 19824:1 
0.06133304234459383 0 244:1 2430:1 8853:1 11031:1 12503:1 12935:1 13221:1 14021:1 15881:1 18565:1 19167:1 19450:1 22350:1 
0 0.2402895597227848 8654:1 21072:1 
0.09830471956854761 0.05092137159238849 9573:1 9751:1 18047:1 21951:1 22654:1 
1 0.1973791362079284 1640:1 9080:1 18281:1 
1 0.6303138616457742 959:1 8520:1 12811:1 
0 0.009820801992339248 4555:1 7723:1 11579:1 11649:1 14908:1 23109:1 23144:1 23395:1 24117:1 
0.06561136231372079 0 1231:1 2558:1 4223:1 4830:1 10533:1 10872:1 12758:1 19167:1 20198:1 22150:1 22227:1 23216:1 
1 0.2877996518843593 10646:1 
0.2798744690943512 0.02508874899399975 3805:1 4469:1 5805:1 11845:1 15655:1 16141:1 19364:1 21536:1 
0.1771981674393424 0.109511173667456 4057:1 19908:1 21623:1 23451:1 
0.04801116986825343 0.1339087460350922 565:1 6260:1 6986:1 16849:1 21616:1 22698:1 24289:1 
0.8543049307966174 0 3006:1 9573:1 18316:1 
0.1135032609423197 0.01848212892634618 1241:1 1742:1 2605:1 5736:1 6682:1 7719:1 13222:1 13953:1 19158:1 24000:1 
0.3551538651284301 0 250:1 15881:1 16146:1 18900:1 21462:1 23686:1 
0.1741635666265471 0 1154:1 4346:1 11198:1 11943:1 12467:1 16573:1 17047:1 23395:1 
1 0 2249:1 15655:1 15881:1 16450:1 23448:1 
0.2390977278323249 0 6965:1 7376:1 7884:1 12068:1 14013:1 15881:1 17092:1 22777:1 
0.1765760328665536 0 1154:1 2785:1 3480:1 4608:1 6788:1 9889:1 15881:1 17212:1 
0.1006844334005868 0 1652:1 3492:1 5155:1 6616:1 6839:1 10908:1 12500:1 13679:1 14820:1 15881:1 20459:1 24227:1 
0.5086417222037609 0.01711100124140823 1259:1 2430:1 2484:1 4627:1 9052:1 10408:1 18565:1 19834:1 21868:1 23008:1 
0.5109097262786675 0.1695106146511653 5778:1 7892:1 9563:1 12570:1 
0.1627544738980954 0.001782914235111255 5732:1 8865:1 9609:1 11476:1 15881:1 17447:1 21846:1 
0.1473429429705609 0.08119065329914076 3492:1 15559:1 22626:1 
0.4740357781013335 0 120:1 2691:1 12383:1 19167:1 21415:1 23894:1 
0.1633575369403539 0.03345872598353944 5538:1 5981:1 8853:1 9282:1 14420:1 16146:1 16640:1 
0.3917919551538974 0.06170883488566505 1205:1 2483:1 3849:1 10818:1 14908:1 15061:1 16440:1 18784:1 
0.1915240831483598 0.1318364128677685 1791:1 4771:1 4777:1 6788:1 9561:1 11302:1 13519:1 13755:1 18565:1 
0.1681348286005749 0 4021:1 4090:1 4627:1 7676:1 8466:1 10056:1 18565:1 19167:1 20508:1 21088:1 22683:1 
0.05097736679185896 0 3326:1 3865:1 10533:1 11890:1 12291:1 12847:1 13221:1 13781:1 14690:1 15944:1 18565:1 19548:1 20023:1 
0.6209009758107184 0.1472055844122098 3660:1 5425:1 6035:1 9751:1 23722:1 
0.04524913116721403 0 2639:1 15041:1 15584:1 16366:1 19440:1 19746:1 
0.09828358451666636 0 2234:1 7088:1 16288:1 18538:1 21567:1 22778:1 22871:1 
0.05952927564211272 0 1758:1 5046:1 9491:1 10295:1 12919:1 17531:1 19913:1 20058:1 21763:1 23919:1 
0.04806749249243902 0 3135:1 4927:1 5611:1 6196:1 8537:1 12113:1 12300:1 12628:1 13144:1 17141:1 20081:1 20706:1 21451:1 21714:1 
1 0 120:1 6331:1 6393:1 19167:1 
0.5108660820168997 0 1478:1 7263:1 13724:1 14377:1 14620:1 18150:1 21330:1 23575:1 
0.2396065870897933 0 2446:1 4828:1 5159:1 5487:1 7965:1 8109:1 20090:1 23029:1 
0 0.0770696312069261 14:1 5926:1 7458:1 11659:1 20279:1 20703:1 
0.09559500801194666 0 519:1 935:1 5322:1 5870:1 15881:1 18215:1 18764:1 18770:1 22504:1 
0.07510030394675624 0 709:1 2586:1 3690:1 4269:1 6746:1 6927:1 10099:1 10608:1 10649:1 11775:1 11882:1 14431:1 18648:1 20768:1 21357:1 21549:1 
0.2645400413255489 0.05418258147980604 2852:1 4184:1 6387:1 12500:1 14119:1 15592:1 18910:1 
0.3633929556836074 0 3363:1 4608:1 8234:1 9080:1 10505:1 14127:1 19595:1 
0.1113130887861951 0 2705:1 5410:1 12042:1 15060:1 15881:1 20710:1 21266:1 
0.3044952872720606 0.1034340620021124 4850:1 10398:1 13716:1 21495:1 
0.0854131418082794 0 4063:1 5130:1 7763:1 14943:1 15026:1 15881:1 16484:1 21380:1 21707:1 22347:1 22698:1 
0.1251607613769274 0 1080:1 2751:1 3567:1 4830:1 4880:1 5063:1 9186:1 12192:1 14097:1 15332:1 
0.5411889982578295 0 3638:1 9529:1 13701:1 14141:1 14155:1 18285:1 18608:1 20583:1 
0.07023014431356825 0.1004524420902253 326:1 6005:1 6505:1 7213:1 9387:1 9401:1 9586:1 12089:1 12165:1 14859:1 14992:1 19392:1 23108:1 
0.3454979632415332 0.02767379377564021 2635:1 4499:1 6196:1 7396:1 8007:1 10389:1 12724:1 15128:1 16341:1 17210:1 18779:1 23681:1 
0.1638824353149398 0 7396:1 13412:1 16173:1 20254:1 
0.5160546442839473 0 2917:1 3006:1 5322:1 9845:1 11228:1 17095:1 18565:1 21231:1 
0.08165350864077818 0 1263:1 3541:1 4886:1 8466:1 10047:1 11307:1 14110:1 15881:1 16130:1 18608:1 20011:1 21122:1 21140:1 
0 0.03164626009175744 2367:1 2657:1 5064:1 6447:1 6867:1 7525:1 9823:1 11840:1 15053:1 19137:1 
0.5930895910088445 0 2430:1 3363:1 5322:1 8164:1 12969:1 14031:1 15986:1 17262:1 17421:1 20703:1 
0.116048960689371 0.03450914987173399 4830:1 6002:1 6277:1 6377:1 9073:1 9513:1 9579:1 23354:1 
0.2782126044046414 0 1154:1 1478:1 2984:1 7088:1 17317:1 21757:1 
0.1649954799992708 0 2418:1 3043:1 3192:1 3578:1 5032:1 6986:1 7908:1 8159:1 16816:1 18363:1 22104:1 
0.1026701640708306 0.1678174982548985 5019:1 11338:1 11743:1 
0.07271149052289772 0 480:1 1423:1 2376:1 4004:1 4473:1 10574:1 15332:1 18538:1 19167:1 20126:1 
0.2768193958156459 0 1022:1 1154:1 1444:1 2291:1 2916:1 5322:1 11094:1 15156:1 16830:1 17585:1 18590:1 19424:1 20244:1 
0.4744513061865783 0 1189:1 6199:1 10491:1 15073:1 23117:1 
0.2660429532033861 0.01149316275555858 2320:1 10165:1 13144:1 14459:1 16403:1 17533:1 19167:1 
0.5458212521571382 0 2443:1 3370:1 8943:1 8953:1 10659:1 11569:1 15723:1 16376:1 19167:1 19284:1 21706:1 
0.02671426807394031 0 208:1 697:1 897:1 972:1 3450:1 3693:1 9751:1 15706:1 15881:1 16201:1 19011:1 19224:1 20090:1 20108:1 23269:1 
0.4254871065522964 0 120:1 1154:1 6261:1 6788:1 14342:1 15654:1 16048:1 20058:1 21385:1 22377:1 
0.3397324645369022 0 1412:1 1674:1 9960:1 9981:1 11251:1 12089:1 17841:1 18779:1 19167:1 20951:1 21707:1 
0.3198485808048318 0.06647654644375654 1556:1 4093:1 4828:1 6666:1 8160:1 9491:1 
0.0802886004506108 0 1190:1 3554:1 11330:1 14414:1 20827:1 22331:1 24112:1 
0.6275943120447691 0.00167641794930074 7376:1 14212:1 14305:1 15653:1 15881:1 21344:1 24293:1 
0 0.06621918843486394 2813:1 10165:1 10818:1 13679:1 15332:1 17095:1 21072:1 
0.3819437204533058 0 4279:1 5063:1 8190:1 9372:1 13937:1 14078:1 17585:1 18161:1 23029:1 
0.223269198992073 0 211:1 628:1 2687:1 5063:1 8299:1 10558:1 11585:1 14059:1 15881:1 17141:1 17804:1 19167:1 21914:1 22212:1 22694:1 
0.1682061315627031 0.08675734103982093 2136:1 3493:1 6196:1 7214:1 7406:1 13184:1 17362:1 17955:1 23656:1 
0.1406718086723754 0.08261226399180488 3272:1 3363:1 13222:1 13406:1 22394:1 
1 0.002406423959972072 10099:1 10978:1 21643:1 
0.2656087032023733 0.01066431842270778 7911:1 12474:1 14896:1 18225:1 20459:1 21508:1 21658:1 21706:1 22377:1 
0.006284698038240447 0 1154:1 1189:1 17421:1 19167:1 19388:1 20012:1 20488:1 
0.5344405406575667 0.2734090714554154 780:1 13387:1 
0.4036592359164977 0.06917748391185542 625:1 1546:1 4388:1 5877:1 6900:1 15655:1 18808:1 23705:1 
0.08219275353444498 0.01545877647543455 669:1 948:1 2796:1 6421:1 11399:1 12938:1 16696:1 20058:1 21508:1 22694:1 23014:1 
0.2053839644669163 0 1519:1 2841:1 2916:1 3381:1 4646:1 5945:1 6196:1 14620:1 20205:1 20388:1 23866:1 
0.04072420239368835 0 83:1 1205:1 2795:1 3499:1 4555:1 7460:1 13098:1 14789:1 15169:1 15881:1 18565:1 
0.2355874487284014 0.04931626592753716 6090:1 10985:1 15584:1 15969:1 16711:1 
0.2931821992188214 0.04399167575809043 3581:1 5267:1 6213:1 6922:1 8364:1 9945:1 14094:1 18565:1 18639:1 
0.2563760643682594 0.01636177345588947 4067:1 4566:1 4692:1 7499:1 7793:1 10515:1 13826:1 14916:1 17642:1 19065:1 19167:1 19488:1 
0.2742171603193043 0 2838:1 3201:1 4226:1 4787:1 5322:1 8231:1 9248:1 22394:1 22501:1 
0 0.1049062260664379 3372:1 6009:1 7373:1 
0.598970469251557 0.0266261449378588 5524:1 10212:1 11658:1 11813:1 20758:1 23579:1 
0.3454458425932667 0.06616415939924646 3548:1 11971:1 15226:1 16470:1 18926:1 
0.2286063439128608 0 2829:1 6763:1 10646:1 12958:1 13690:1 21391:1 
1 0 6986:1 9082:1 19167:1 
0.3539390454611476 0.01667991887081731 1443:1 6602:1 9464:1 10051:1 14141:1 15482:1 16506:1 16606:1 17877:1 19516:1 21285:1 
1 0.6250545219120571 2280:1 
0.2976628593401468 0.2078315149539936 892:1 1015:1 9500:1 9523:1 10491:1 13547:1 
1 0.6249238196258197 9470:1 
0.08435753894530089 0 2496:1 3052:1 5322:1 6336:1 6929:1 7029:1 12474:1 14212:1 
0.2577336020535624 0 9959:1 12967:1 18608:1 20090:1 
0.02317648734833153 0.001929084461763396 972:1 1190:1 1729:1 5743:1 7648:1 11404:1 13249:1 15105:1 15329:1 17356:1 18459:1 20880:1 21339:1 
0.4605327434069746 0 3052:1 3492:1 3623:1 12925:1 20546:1 20866:1 
1 0 19167:1 22187:1 
1 0.1010257638859628 12428:1 15591:1 16048:1 23646:1 
0.3506117667953173 0.08970832371702846 3072:1 6995:1 12678:1 21824:1 
0.251175178469945 0.05954076871280851 1954:1 2909:1 7064:1 9946:1 15545:1 17704:1 
0.4859980644881718 0.04076111588136101 6788:1 10656:1 20058:1 22048:1 22719:1 23016:1 
0.5752671726574843 0 8014:1 9978:1 10491:1 15697:1 16071:1 23047:1 
0.7791860844276421 0.09282634047962908 948:1 7628:1 7669:1 9401:1 
0.02289326049849534 0.06191384175406139 1368:1 6447:1 7544:1 9163:1 12718:1 14896:1 18860:1 22110:1 
0.6585982385424989 0 4967:1 17670:1 19595:1 20703:1 21579:1 23029:1 23847:1 
0.4614028919506344 0.09387712982525828 1993:1 4830:1 5667:1 6158:1 7500:1 22885:1 
0.2609691219491401 0 1650:1 8685:1 9710:1 9751:1 12784:1 20254:1 
0.08703672900631446 0 60:1 2562:1 3638:1 3805:1 3960:1 4462:1 5474:1 5538:1 13715:1 18179:1 18254:1 24205:1 
0.05190999779213321 0.0259891211968062 2168:1 3260:1 4781:1 6788:1 13862:1 16188:1 17421:1 19810:1 20058:1 20977:1 
0.09577513675106941 0 2109:1 3370:1 3449:1 4041:1 5563:1 10316:1 11945:1 13391:1 18377:1 18398:1 18910:1 21080:1 21567:1 22588:1 23203:1 23282:1 23296:1 
0.1997688184362872 0.0682612744098422 4920:1 17500:1 19167:1 20090:1 20894:1 21926:1 
1 0 3849:1 14259:1 15881:1 
0.6754747392627487 0.2990843769959224 11227:1 20125:1 
0.0434367028906833 0 5338:1 7014:1 7751:1 13663:1 13679:1 13972:1 14992:1 15281:1 15881:1 21763:1 
0.4931062006049241 0 5975:1 8307:1 14105:1 15134:1 15655:1 17890:1 21072:1 21274:1 21373:1 24101:1 
0.4072319131742862 0.4307450308581436 2705:1 7461:1 
0.3903177711777061 0.03695630449471085 3581:1 4800:1 8239:1 13887:1 14426:1 14670:1 15478:1 18888:1 21113:1 
0.2361961665099451 0.06002433273394574 1650:1 4988:1 6260:1 10291:1 12214:1 14991:1 16146:1 16242:1 16342:1 21707:1 22181:1 22639:1 
0.2065096320085203 0 1189:1 3238:1 5175:1 15065:1 15588:1 15869:1 16029:1 23029:1 
0.3352886271682158 0.04294718658986492 948:1 1674:1 4409:1 6375:1 6846:1 
0.57733615720738 0 2204:1 4848:1 5322:1 8823:1 10880:1 16869:1 20990:1 
0 0.02009549926842685 1767:1 2558:1 5831:1 12206:1 13690:1 19513:1 21218:1 21256:1 24227:1 
0.0919617282496276 0 2705:1 2884:1 5322:1 6375:1 16680:1 20362:1 22292:1 
0.06685458545822726 0 1189:1 6755:1 18678:1 18860:1 
0 0.009770623362176911 780:1 1605:1 3617:1 5171:1 9287:1 10076:1 10307:1 12293:1 14859:1 15653:1 21075:1 
0.435204841764913 0.0940296054802903 6375:1 6994:1 7811:1 8598:1 17993:1 
0.3091610934839921 0.1083523403952762 672:1 8431:1 8521:1 9083:1 24102:1 
0 0.01743245289471457 5019:1 6114:1 6403:1 20254:1 21990:1 22957:1 
0.06633650397638724 0 2505:1 5077:1 5385:1 8578:1 10487:1 10666:1 17545:1 18238:1 22331:1 
0.4886454713825866 0.1061908221218051 2635:1 5805:1 12270:1 12746:1 
1 0.0001589798359518551 1423:1 15329:1 17686:1 
0.1244426889755406 0 1189:1 7496:1 12945:1 19171:1 
0.1396590979901903 0 9147:1 9924:1 10581:1 12291:1 13763:1 15881:1 16506:1 17087:1 19167:1 23100:1 
0.06073859334957239 0.08737108760619494 2372:1 5047:1 9808:1 14885:1 16351:1 
1 0.1466361979451545 8502:1 10398:1 18910:1 
0.2094319665233508 0 1473:1 5322:1 5445:1 7649:1 11275:1 11542:1 13862:1 17921:1 
0.03133453243983945 0 3492:1 3524:1 6746:1 7141:1 10099:1 10579:1 14342:1 17921:1 20277:1 
0.1220615147792614 0.07498537500364666 1549:1 2278:1 7230:1 7662:1 9492:1 15697:1 17098:1 18716:1 23615:1 
0.3256723010009383 0.1110167912840691 4497:1 8186:1 8373:1 9054:1 9604:1 11715:1 12014:1 17873:1 19528:1 22350:1 24138:1 
0.1274429403358967 0.003692027229904273 419:1 1630:1 5038:1 8517:1 15409:1 16621:1 20090:1 
0 0.131080438765416 816:1 5213:1 8888:1 8899:1 9924:1 18005:1 19257:1 23531:1 
0.1604946610694497 0.0003080510885580118 1176:1 11882:1 15277:1 15881:1 17205:1 18514:1 
0.3433034374721493 0.09791476676296364 665:1 6287:1 6917:1 8107:1 11902:1 14594:1 17257:1 17316:1 
0.4462727788650071 0.08890766780553114 4054:1 5115:1 8466:1 14456:1 17921:1 20594:1 24107:1 
0.7133025129046599 0.3125634218140253 10278:1 20388:1 
0.2250549049176239 0 225:1 3851:1 4119:1 6788:1 9682:1 11275:1 12667:1 13222:1 17170:1 
0 0.03759390049238853 1433:1 1562:1 1729:1 2166:1 4751:1 5489:1 14435:1 14766:1 15869:1 18285:1 23038:1 23248:1 
0.2896523676409659 0.1130694859359489 4701:1 10030:1 19982:1 20173:1 21763:1 
0.05253331131807706 0 1372:1 5526:1 7085:1 12291:1 15769:1 15869:1 16576:1 18952:1 19090:1 19534:1 20992:1 21256:1 23420:1 
0.03747288352004446 0 1534:1 3320:1 5403:1 7520:1 12666:1 16415:1 21424:1 21707:1 23186:1 
0.3898481793981586 0.1235412398822175 2692:1 15484:1 19515:1 
0.2511234177568733 0.0005573473794922457 1923:1 2151:1 7561:1 9491:1 10224:1 15052:1 15612:1 16403:1 22237:1 
0 0.032856291591473 1640:1 4004:1 4404:1 10048:1 12535:1 20015:1 
0.09645252980282706 0.02328086632155117 482:1 1412:1 11607:1 14643:1 15404:1 17986:1 22713:1 23468:1 
0.1586195752148666 0.08007329572521779 721:1 1419:1 6260:1 13713:1 15032:1 15276:1 18927:1 22669:1 22729:1 23420:1 
0.5601988995695557 0.04545831502339104 444:1 1478:1 2477:1 10011:1 18005:1 
0.6630237633981417 0 2691:1 5410:1 9801:1 9971:1 18965:1 
0 0.0625175536498324 627:1 1346:1 6989:1 17739:1 17828:1 20382:1 
0.3992038263752568 0 1208:1 7525:1 19167:1 19435:1 19984:1 21208:1 
0.1386392876541564 0 1154:1 2376:1 4828:1 12089:1 13767:1 13788:1 14862:1 15881:1 19539:1 20135:1 
0.826069173111751 0.1084329512132813 3101:1 6897:1 9040:1 16146:1 
0.0897604652342902 0.0324202131767735 4662:1 5894:1 9110:1 11306:1 12384:1 13405:1 14620:1 15766:1 20546:1 23382:1 
0.1389208916044117 0.002940205682307729 1227:1 1319:1 3044:1 5526:1 8851:1 10291:1 15621:1 19191:1 19447:1 22871:1 23531:1 
0.06162488888255441 0.009665411719813903 109:1 2064:1 6251:1 6856:1 15265:1 15276:1 18254:1 21373:1 
0.1305417705163511 0 2113:1 5524:1 5538:1 7373:1 9762:1 11228:1 15881:1 17716:1 19513:1 20710:1 
0.3859976438793085 0.03233095029048257 987:1 5051:1 5213:1 8974:1 9502:1 15135:1 24291:1 
0 0.01026282673490484 5524:1 7460:1 12733:1 17396:1 19824:1 22719:1 
0.2612733120774421 0 5266:1 5659:1 10070:1 15426:1 16590:1 16635:1 18631:1 19896:1 21279:1 21565:1 23029:1 23479:1 
0.1818955906480765 0.02802346039472243 3010:1 7376:1 8010:1 13714:1 17653:1 19806:1 
0.4432095178392989 0 3578:1 8888:1 8899:1 10074:1 10174:1 13781:1 14451:1 15042:1 16371:1 17865:1 23792:1 
0.5594949380156539 0.1657377199660914 1154:1 7029:1 13870:1 16732:1 
0 0.01649366349385874 184:1 7264:1 10037:1 15404:1 17895:1 18708:1 22698:1 
0.5378634768329984 0 5063:1 9278:1 12192:1 15033:1 20388:1 22237:1 
0.3714690541788624 0.02906085712546636 986:1 1205:1 2169:1 2477:1 8793:1 8819:1 8865:1 9930:1 18563:1 18734:1 24300:1 
0.5950792530234871 0 488:1 2705:1 3006:1 9530:1 15881:1 18888:1 19490:1 
0.6094285570532562 0 1189:1 9971:1 12963:1 18860:1 
0.1182445155025097 0 3492:1 3542:1 5424:1 5789:1 7396:1 10904:1 12531:1 12718:1 14789:1 18290:1 
0.005409817189555854 0 4132:1 5626:1 10303:1 10533:1 11753:1 15437:1 15881:1 16442:1 20214:1 21925:1 
0.02484456325739624 0 2982:1 3269:1 3924:1 9582:1 11238:1 11753:1 12275:1 16048:1 16726:1 16794:1 
0.796907915739521 0.01645804162073004 11:1 1154:1 8319:1 15416:1 23719:1 
0.3317917343589216 0 1154:1 1599:1 5367:1 12386:1 15159:1 15931:1 18225:1 18614:1 23078:1 
0.04523761733208394 0.005502779408809208 2286:1 2477:1 6929:1 7832:1 9949:1 10156:1 13814:1 16730:1 17370:1 20570:1 20951:1 21165:1 
0.6040577495671071 0.06403071777404853 339:1 3051:1 4805:1 5063:1 
1 0.3154004305450762 9426:1 15399:1 
0.8529012375465848 0.2939131353049929 7396:1 12260:1 17515:1 18392:1 20110:1 24249:1 
1 0 5524:1 6375:1 18608:1 20551:1 
0.07437648203832344 0 1189:1 9543:1 16884:1 17664:1 18901:1 19693:1 23981:1 
0.134922918299674 0 3492:1 3813:1 4119:1 5745:1 10939:1 15159:1 15881:1 
0.7087001945720144 0.2904122161519587 3266:1 11064:1 11466:1 13049:1 
0.2767845580607217 0 60:1 3581:1 4627:1 4715:1 5322:1 6094:1 6891:1 11543:1 12291:1 14078:1 
1 0.6250804916709496 16755:1 
0.2331364214314965 0 1649:1 2639:1 5410:1 6087:1 6260:1 12059:1 15655:1 15881:1 18250:1 
0.1378528456747271 0.02681006294272658 173:1 6165:1 7373:1 14317:1 14690:1 15876:1 21596:1 
0.5115662007521428 0.1121845145833293 5063:1 9586:1 10032:1 11242:1 15770:1 16149:1 17603:1 21865:1 24113:1 
0.9749049860365855 0 1154:1 8319:1 8630:1 14078:1 24223:1 
0.4545122919838674 0 359:1 2484:1 5942:1 7630:1 12836:1 16048:1 16837:1 17047:1 18496:1 19984:1 22331:1 
0.2715567372184854 0 1154:1 1341:1 2466:1 2682:1 2692:1 8319:1 17424:1 
0.07195463383127636 0 155:1 3829:1 4664:1 5488:1 10171:1 11466:1 14683:1 15251:1 15664:1 15881:1 17625:1 20090:1 
0.6463334607461806 0 3370:1 3669:1 6867:1 9083:1 15869:1 15881:1 20969:1 
0.001751084456204686 0.008204154673691202 1052:1 8290:1 9391:1 11454:1 14820:1 14889:1 15154:1 15836:1 18565:1 22315:1 
0.4959201961237401 0.05511068941048353 2146:1 3031:1 3805:1 8838:1 15443:1 18565:1 18949:1 21868:1 23449:1 
0.4003626548529343 0.02476901399177092 2194:1 5627:1 17564:1 17600:1 19249:1 
0.03639735447536271 0 2136:1 2487:1 3320:1 3485:1 6178:1 7717:1 8888:1 10500:1 11400:1 13436:1 17200:1 17799:1 17836:1 19945:1 22350:1 
0.2591038682327877 0 346:1 3006:1 14414:1 17237:1 19167:1 20880:1 
0.09465599504528456 0 787:1 1189:1 3006:1 9911:1 13412:1 14786:1 15159:1 15869:1 15882:1 21121:1 23029:1 
0 0.00617153871402334 4180:1 5213:1 13973:1 18384:1 22754:1 22825:1 
0.262200867772907 0 6094:1 6294:1 7938:1 9387:1 12797:1 17897:1 18565:1 23710:1 
0.365332947481102 0.09189547877770214 1314:1 3851:1 11362:1 12900:1 
0.9091813996168037 0 4787:1 9080:1 12230:1 12718:1 13812:1 18904:1 19167:1 24291:1 
0.5526553086773509 0 15251:1 18608:1 20254:1 
0.1663853074265946 0 134:1 614:1 2272:1 6260:1 7763:1 11306:1 12500:1 15480:1 15881:1 17338:1 17382:1 21740:1 24089:1 
0.2381424866496468 0 173:1 5063:1 9881:1 12089:1 13840:1 14312:1 16964:1 20633:1 22701:1 
0.534885118076374 0.0809211002868543 7393:1 8630:1 17908:1 18565:1 20042:1 21357:1 
0.7753218742402523 0 14043:1 15881:1 19548:1 23849:1 
0.3536702220371876 0.3098011809373082 16730:1 19678:1 
0.1621312550836826 0 1189:1 3487:1 6922:1 12910:1 15869:1 17564:1 17908:1 19167:1 
0.3298443491787042 0 1478:1 3548:1 5456:1 5880:1 10048:1 11946:1 13405:1 13698:1 17607:1 18764:1 19595:1 
0.2248692532277059 0 2682:1 4627:1 6750:1 7535:1 12186:1 12394:1 14000:1 15863:1 16403:1 17083:1 17635:1 20021:1 20090:1 22128:1 23508:1 23579:1 
0.2011629253345246 0.01677834896881602 2151:1 5667:1 9570:1 16288:1 17523:1 18514:1 21303:1 21311:1 22424:1 
0.3121340498363961 0.03152093662679778 3865:1 9772:1 13148:1 16258:1 19285:1 21518:1 22797:1 
0.2762886893984677 0.0700451915975845 6593:1 6923:1 7511:1 9186:1 9420:1 10664:1 10742:1 10939:1 11866:1 15198:1 18409:1 19335:1 21557:1 22188:1 22294:1 
0.09178618934684812 0 2072:1 2360:1 3492:1 9960:1 12102:1 17337:1 18630:1 20142:1 20279:1 
1 0.1255230064177448 6010:1 9710:1 15985:1 18179:1 
0.8027203484930269 0 2430:1 3955:1 5064:1 6094:1 8861:1 15022:1 16048:1 19167:1 20090:1 20280:1 23029:1 
0 0.05133792602655875 606:1 2156:1 3553:1 6199:1 11090:1 12111:1 16105:1 18715:1 18730:1 19550:1 21557:1 22501:1 
0 0.1253220158661806 1208:1 8470:1 13520:1 16799:1 
0.3453014357747453 0.09304622295248552 1015:1 4843:1 5267:1 5324:1 8072:1 8500:1 13250:1 13323:1 13481:1 16871:1 17386:1 22087:1 
0.5619447253120464 0.3288777449419141 2857:1 5167:1 9430:1 
0.6082003922774097 0.3125106408263601 18360:1 22772:1 
0.7566488942805328 0.5806421373130631 2751:1 3548:1 10786:1 15588:1 
0.2644627883664428 0 4064:1 5805:1 9560:1 14539:1 15881:1 16590:1 22104:1 
0.09465888469934776 0.1156448462439304 1092:1 1732:1 5133:1 6260:1 12504:1 15409:1 22046:1 23801:1 
1 0.3125881532509199 6223:1 19151:1 
0.02412660128613266 0.08450207564157788 5385:1 6781:1 13641:1 20486:1 22576:1 
0.3260868921047265 0.3125653297273651 4848:1 7100:1 
0.5115646870092555 0 3976:1 9751:1 15881:1 16726:1 17921:1 22754:1 23792:1 
0.3228482660622115 0.001637002946943003 527:1 6811:1 8404:1 10212:1 14090:1 15443:1 16048:1 18717:1 18839:1 20760:1 21330:1 
0.1755724060050647 0 2751:1 16705:1 21226:1 
0.054612194135244 0 1712:1 3223:1 4106:1 7500:1 7669:1 7883:1 8197:1 9430:1 10418:1 15881:1 22116:1 
0.229592380392326 0 2558:1 3960:1 12700:1 15881:1 17048:1 
0.1338215460515599 0 1190:1 2151:1 7378:1 8690:1 12417:1 15881:1 17228:1 18901:1 19532:1 20185:1 24249:1 
0 0.06243241226790956 91:1 427:1 1159:1 9924:1 15065:1 18493:1 
0.2209926515866985 0.09836604932189763 72:1 2290:1 7508:1 14283:1 14657:1 15584:1 15762:1 
0 0.07679785117108801 430:1 3020:1 4830:1 13281:1 15621:1 
0.5303029999794261 0.2035971236606464 1189:1 5431:1 9633:1 18362:1 18804:1 
0.07888722659071654 0 1190:1 2192:1 8128:1 15869:1 17611:1 18575:1 
0.3978726595669018 0 1712:1 3850:1 5213:1 9400:1 15881:1 18302:1 19167:1 24121:1 
0.0612691679417068 0.02626215457180113 1258:1 3865:1 4413:1 9971:1 11588:1 11840:1 14403:1 14941:1 16394:1 18586:1 21701:1 23897:1 
0.007834118986107745 0.007527491178305283 3338:1 4169:1 4206:1 4216:1 5550:1 6802:1 7988:1 9533:1 9538:1 11552:1 14013:1 14552:1 16166:1 16314:1 18503:1 19987:1 20058:1 20163:1 22785:1 23919:1 
0.1225207883682038 0.01312581261757055 1206:1 2610:1 2629:1 5107:1 7841:1 11144:1 12452:1 18888:1 22873:1 23141:1 
1 0.06246167420589713 403:1 5322:1 13836:1 19184:1 
0.09361181506655565 0 2558:1 7088:1 8095:1 12861:1 17162:1 20138:1 23468:1 24227:1 
0.7059187220469514 0.1024656274768652 7894:1 9319:1 11349:1 15251:1 
0.200682559651946 0 7719:1 12679:1 15567:1 16029:1 17195:1 20889:1 21706:1 
0.0009441115091694004 0 3375:1 8487:1 8906:1 9175:1 11117:1 12089:1 15420:1 16260:1 17098:1 19167:1 20625:1 
0 0.02917779546313372 1646:1 12935:1 15584:1 
0.1808490646488961 0.06699378167708785 4662:1 6162:1 8185:1 9852:1 11758:1 13490:1 14874:1 22188:1 
0.1428449881326363 0.007002564536612918 1184:1 1944:1 2692:1 4269:1 5743:1 9472:1 11790:1 12718:1 14169:1 15281:1 15792:1 
0.6347652018211806 0.08651664050540241 3865:1 4945:1 10253:1 15508:1 15778:1 
0.1639424986219366 0 1154:1 1206:1 1319:1 4076:1 6032:1 10945:1 14140:1 14194:1 14620:1 15881:1 
0.2564309163244596 0 60:1 1293:1 3668:1 7874:1 16651:1 18764:1 19167:1 22166:1 
0.1288264855059918 0 288:1 973:1 2380:1 3865:1 5532:1 8888:1 16131:1 21304:1 
0.3504194619955137 0 1848:1 5063:1 5303:1 7464:1 8216:1 9603:1 12468:1 12626:1 15655:1 17215:1 18470:1 18782:1 20963:1 21190:1 21731:1 
0.6611073949193805 0.0753378041999753 14141:1 16218:1 17382:1 21951:1 23732:1 
0.3436755009976473 0 1159:1 4076:1 5033:1 7857:1 8216:1 10135:1 12192:1 18321:1 21885:1 23646:1 23687:1 
0.04429444174903066 0.01492687548871569 2445:1 4174:1 7676:1 9857:1 9940:1 10335:1 11057:1 11425:1 16399:1 16507:1 17801:1 17972:1 18504:1 19603:1 19965:1 
0 0.04040158137039123 4608:1 14262:1 15281:1 18565:1 19515:1 
0.8459561367345823 0.07976006403601309 4570:1 8455:1 10212:1 
0.4825910778820065 0.1039684461466479 173:1 14889:1 23395:1 
0.08838668240502784 0.04177772109435299 348:1 4644:1 5469:1 7987:1 12825:1 12870:1 12998:1 16146:1 18557:1 
0.3948855115980476 0 3865:1 5322:1 7805:1 16121:1 16146:1 16804:1 
0.05947215829440541 0 5240:1 6738:1 8466:1 8724:1 13927:1 14414:1 15881:1 22556:1 
0.9975692433824277 0 4608:1 9401:1 12935:1 15881:1 19368:1 
0.01755145077761401 0.133852253831538 1643:1 5713:1 10209:1 15869:1 16584:1 20283:1 21266:1 
0.04834837076354728 0 1650:1 1751:1 1929:1 2902:1 5386:1 11601:1 13771:1 13860:1 14959:1 15409:1 16567:1 22345:1 23646:1 
0.4397168064643142 0 4974:1 11106:1 12393:1 12501:1 16048:1 20001:1 20103:1 20536:1 
0.2300631494787847 0.1218678435397173 2570:1 2785:1 7966:1 8533:1 16066:1 
0.003993774103069444 0 1154:1 13149:1 15655:1 23802:1 23870:1 
0.3487877988945828 0.0735412670605044 5099:1 10448:1 12718:1 14269:1 17666:1 
0.5633873231837123 0 2558:1 2777:1 6421:1 7142:1 19873:1 21763:1 
0.8850667884689257 0.1494087537539084 1593:1 5210:1 6754:1 10657:1 15723:1 
0.08828150953119529 0 780:1 1154:1 3006:1 3677:1 6196:1 6754:1 11905:1 12089:1 16078:1 23029:1 
0.9212289627009535 0.1709567732001435 4627:1 8466:1 12780:1 14239:1 
1 0.07148048897355917 4093:1 4336:1 10602:1 
0.01249593220207342 0.04412740344712568 545:1 1594:1 4052:1 4161:1 5672:1 7880:1 9328:1 10074:1 10537:1 17689:1 22028:1 
0.3710847916402475 0.1862074165422048 5213:1 6633:1 14296:1 19531:1 22554:1 23282:1 
0.09251349391027292 0.04983960259976453 654:1 2904:1 9579:1 11268:1 12951:1 12975:1 14018:1 15185:1 15653:1 20138:1 20588:1 23950:1 
0.20350246452085 0.03772637074547508 2136:1 6055:1 6219:1 11542:1 11617:1 11778:1 15399:1 15452:1 15941:1 17141:1 18828:1 21817:1 22656:1 
0.1369043559474423 0.003825820852900707 6971:1 15100:1 15881:1 16725:1 19901:1 20735:1 
0.5024512341725095 0.03493530040111006 9442:1 11957:1 12587:1 13341:1 15543:1 18713:1 19216:1 21586:1 22796:1 
0.2497730438524337 0 173:1 1412:1 4409:1 5063:1 6406:1 6580:1 7128:1 8469:1 8654:1 17756:1 20606:1 22445:1 
0.07604616551151135 0 370:1 4864:1 8435:1 8567:1 10119:1 10949:1 11386:1 13356:1 15931:1 16086:1 16921:1 18197:1 20090:1 22049:1 
0.315131898697881 0 1208:1 3072:1 15881:1 20848:1 24293:1 
0.170217949851931 0.03022946661577054 2875:1 5962:1 9751:1 11235:1 15074:1 18915:1 19890:1 23494:1 
0.1259590634614529 0.05542514731282204 3320:1 6742:1 17180:1 22720:1 23554:1 
1 0 10711:1 12913:1 15881:1 
0.08841233770562332 0 681:1 1534:1 6986:1 15881:1 18179:1 22048:1 
0 0.006614866732997974 2558:1 2687:1 3703:1 3865:1 7180:1 7407:1 7753:1 10097:1 18801:1 24051:1 24227:1 
0.4562518269390284 0.1424005575674145 4346:1 10027:1 10574:1 22004:1 
0 0.03944339431130362 937:1 975:1 2312:1 4886:1 6260:1 6995:1 7241:1 9900:1 10810:1 19933:1 21951:1 22366:1 
0.4109845631602221 0.01591992593964521 4830:1 6545:1 6912:1 7647:1 7691:1 15038:1 15881:1 16077:1 
0.4422125947836376 0 1599:1 2916:1 5255:1 6986:1 13267:1 18614:1 19368:1 20889:1 
0.23806461977481 0.01411825048773097 1940:1 12089:1 12685:1 12833:1 14456:1 17921:1 18391:1 19840:1 20673:1 
0.1300667503372247 0 316:1 2958:1 3638:1 4887:1 5276:1 8280:1 10265:1 10655:1 12718:1 14986:1 18003:1 18039:1 19167:1 20128:1 20952:1 
0.177266673018639 0.05196077243258173 654:1 1060:1 10441:1 13755:1 16688:1 18734:1 19548:1 20610:1 22753:1 
0.4596852513391351 0 6094:1 7882:1 8630:1 11736:1 16884:1 17543:1 
0.07554356883305598 0 12:1 199:1 625:1 1508:1 4212:1 7676:1 7969:1 13522:1 13755:1 15719:1 15881:1 16050:1 17883:1 20213:1 21565:1 21746:1 23323:1 24023:1 
0.6188991580105187 0 15881:1 21178:1 22688:1 
0.5334136171419898 0 1189:1 2192:1 6986:1 8128:1 18495:1 18660:1 
0.1933639173474884 0 4981:1 5415:1 5611:1 13221:1 13625:1 14795:1 16365:1 17432:1 19477:1 
0.05689271191809379 0 819:1 2493:1 3189:1 10074:1 12521:1 19167:1 23864:1 
0.01886024622279682 0.001824144516548895 1620:1 6196:1 7458:1 9256:1 9751:1 10451:1 10915:1 15409:1 19810:1 20927:1 20977:1 22617:1 23362:1 24063:1 
0.5009414720602606 0.1056088691476779 1839:1 5627:1 15022:1 15191:1 16273:1 20012:1 21784:1 
0.2059739674195996 0.05264932570090088 1646:1 13512:1 15161:1 21706:1 
0.2402845847041626 0 3020:1 5941:1 6543:1 18112:1 19167:1 19541:1 22421:1 22462:1 
0.2926518366834724 0.02008638329880846 43:1 2376:1 2679:1 3031:1 5213:1 12963:1 14453:1 21988:1 24183:1 
0.2569660325535665 0.002394271942721598 4881:1 5255:1 6763:1 8857:1 12013:1 14212:1 15335:1 18268:1 18649:1 24230:1 
0.2924118373226606 0.1242391188659577 6260:1 13654:1 15655:1 15881:1 16003:1 23108:1 24193:1 
0.1698099194694061 0.05506654865624424 262:1 6337:1 7676:1 8867:1 18012:1 20060:1 20266:1 
0.471197110148753 0.05230461525979924 2446:1 4119:1 11126:1 16098:1 18764:1 22939:1 
0 0.08289138452185531 3788:1 5877:1 5997:1 17356:1 23448:1 
0.112601039677101 0 7664:1 9430:1 11479:1 24249:1 
0.03745502140683363 0.02889410001750477 403:1 1587:1 1767:1 8448:1 11463:1 13836:1 19167:1 
0.455295412316325 0.03942232134718102 7088:1 8193:1 8424:1 14668:1 16288:1 16799:1 
0.06790621095644023 0 2855:1 3292:1 6375:1 7573:1 8045:1 16899:1 19167:1 21867:1 
1 0.2311613398357454 1478:1 9491:1 16849:1 
0.0626005966398038 0.1140527650732188 1423:1 9956:1 22835:1 
0.2320497101582926 0 679:1 2682:1 4941:1 6127:1 6688:1 14777:1 15154:1 16130:1 18608:1 
0.3224954306298821 0.185560957316515 744:1 1767:1 3971:1 10212:1 17752:1 22104:1 22871:1 
0.2607192422177885 0 1749:1 5322:1 17081:1 17095:1 20678:1 22292:1 22662:1 
0.01386238006321496 0.01462759997595622 4064:1 5793:1 6788:1 10794:1 11905:1 16118:1 22380:1 
1 0.1966350915407854 2446:1 4872:1 14127:1 
0 0.183016655641564 9558:1 14010:1 14013:1 
0.3063474343316029 0.09578965695543404 2159:1 8185:1 8861:1 11429:1 14163:1 15706:1 18024:1 19167:1 19912:1 21856:1 
0.9532902857003085 0 10632:1 10646:1 17095:1 
0.05583216716459816 0.02556266384733158 1701:1 2054:1 3292:1 6375:1 8971:1 11087:1 15561:1 22997:1 24024:1 
0.1090871633281983 0.009917589146046471 334:1 2116:1 2962:1 4174:1 7676:1 7967:1 7987:1 8453:1 9517:1 10336:1 12574:1 12998:1 13201:1 17898:1 18070:1 18540:1 19596:1 
0.8714303737368225 0 4336:1 4404:1 8861:1 12291:1 12403:1 23646:1 
1 0.6250050111052685 7496:1 
0.1683406158526496 0 1189:1 2493:1 2900:1 4244:1 5494:1 7609:1 9143:1 16819:1 22104:1 
0.1421627830738274 0.01674370477971057 847:1 1315:1 4830:1 5491:1 10134:1 14999:1 17027:1 23230:1 
0.4530182569405173 0 6986:1 15652:1 15655:1 15881:1 16095:1 18466:1 20629:1 
0.581384798656409 0.04181827416949305 2477:1 5322:1 6260:1 6505:1 8137:1 8160:1 14414:1 19354:1 20083:1 20350:1 21707:1 
0.2653904322637439 0.03644280943350296 3993:1 4871:1 5589:1 7729:1 12258:1 15852:1 16626:1 19764:1 
0.0174579556379665 0 2687:1 3442:1 3492:1 4093:1 6746:1 10290:1 14453:1 15988:1 16869:1 17397:1 22167:1 22237:1 
0.2738981866676122 0.0209352646498747 1278:1 4336:1 4570:1 6778:1 13936:1 
0 0.0787584853175326 2376:1 3965:1 4893:1 7884:1 11957:1 14563:1 18461:1 
0 0.05866870686858191 2376:1 2993:1 5849:1 11542:1 18631:1 22307:1 23792:1 23980:1 
0.1391142768293572 0 1631:1 2376:1 4705:1 5063:1 5322:1 12192:1 12362:1 18321:1 18984:1 23187:1 
0.0318746842300839 0.0949363831258522 797:1 4478:1 8073:1 10983:1 11084:1 12791:1 14999:1 15949:1 21151:1 
0.01423357757067994 0 8701:1 8779:1 15881:1 22394:1 
0.1859344511821496 0 156:1 1154:1 6336:1 6887:1 18286:1 19913:1 20186:1 21529:1 
0.1771171261907444 0 1973:1 5003:1 6867:1 13643:1 14969:1 15869:1 16816:1 17141:1 19912:1 21294:1 21817:1 23369:1 
0.1959859389307984 0 1827:1 5255:1 5366:1 6986:1 13226:1 17543:1 21391:1 
0.05308070651470086 0 681:1 10307:1 12718:1 15027:1 16455:1 20754:1 22775:1 23029:1 
0.3944176655080281 0 3006:1 5149:1 17925:1 
0.2374133444514414 0 2639:1 3037:1 6442:1 6891:1 10212:1 12089:1 12554:1 13526:1 15584:1 23029:1 
0.07732547226696172 0 3363:1 6746:1 7237:1 13221:1 19513:1 
0.3165215676712548 0.01367773517981839 8779:1 10979:1 11228:1 11840:1 13658:1 15689:1 23661:1 23974:1 
1 0 780:1 6862:1 14018:1 19167:1 
0.1348248306629668 0.02290606486863633 1549:1 1809:1 3847:1 8126:1 8728:1 17047:1 18247:1 19043:1 21817:1 
0.6812331978116027 0.0688584421531326 2376:1 5347:1 5586:1 9186:1 15332:1 16867:1 17653:1 23135:1 23869:1 
0.1708694973441508 0 4973:1 6005:1 7883:1 10131:1 15881:1 21229:1 23141:1 
0.181899568974618 0 156:1 595:1 3260:1 5385:1 6961:1 10099:1 10650:1 10949:1 15655:1 16266:1 17317:1 19167:1 21649:1 
0.6962153876103332 0 8497:1 10574:1 11543:1 22268:1 
0.1903815629975695 0 2982:1 5322:1 9041:1 12500:1 12718:1 13950:1 16730:1 
0.7360231111566423 0.0485888187569432 5581:1 9500:1 10434:1 17620:1 18538:1 
0.141009979391306 0.07824650509292389 2253:1 5654:1 8954:1 12356:1 18514:1 18729:1 23784:1 
1 0.0298432835554245 1478:1 2633:1 8601:1 11882:1 
0.01712361274496663 0.02869171251597573 208:1 654:1 1601:1 11988:1 14188:1 14432:1 14961:1 16513:1 19696:1 20079:1 20869:1 
0.2827560622944171 0 1189:1 2245:1 2313:1 2639:1 5538:1 6196:1 8193:1 11323:1 12145:1 14010:1 17605:1 19193:1 20078:1 20884:1 
1 0.3125644057538969 7150:1 11253:1 
0.4928561350273419 0 3492:1 3669:1 4608:1 4659:1 5033:1 5099:1 5958:1 7050:1 10608:1 11683:1 23646:1 
1 0 2867:1 4540:1 19167:1 23954:1 
0.362698003797787 0.02992099336677544 2691:1 7807:1 10840:1 13242:1 16029:1 18803:1 22204:1 
0.04401351900024399 0 173:1 746:1 8862:1 12507:1 14580:1 15881:1 16191:1 
0.3534992843114699 0 1478:1 8601:1 19364:1 23451:1 
0 0.02897742793187237 270:1 6393:1 10247:1 12778:1 13473:1 16048:1 16513:1 17925:1 19861:1 20709:1 
0.1533623027933549 0 9147:1 10247:1 10577:1 11385:1 15584:1 
0.2837102732154812 0 11892:1 15881:1 18821:1 21413:1 
0.5454713380595733 0.06273440078743633 2446:1 8095:1 13804:1 22734:1 24036:1 
0.5432419887915025 0.008413029931621168 1010:1 3849:1 5524:1 5736:1 10741:1 15655:1 19475:1 20211:1 20762:1 20862:1 24165:1 
0.2088166655292289 0.0650221256728569 6500:1 7676:1 14340:1 15353:1 17296:1 21440:1 
0.05653872550470493 0.03958559210361546 3520:1 4898:1 7746:1 12009:1 12504:1 13876:1 19516:1 23631:1 
0.1749187169849863 0 430:1 2495:1 5174:1 7113:1 10330:1 11652:1 12201:1 14709:1 17601:1 19224:1 21707:1 23029:1 
0.2384508970841964 0 4344:1 8795:1 11228:1 12290:1 13671:1 15881:1 23108:1 
0.2223254714269055 0.05608497005882222 66:1 3414:1 5262:1 7990:1 18553:1 20710:1 
0.03650561122415032 0 90:1 3918:1 6104:1 8597:1 8724:1 10785:1 14889:1 15329:1 17153:1 20203:1 21706:1 22087:1 22726:1 23898:1 
0.554206089497545 0 326:1 4076:1 8604:1 10128:1 13297:1 15881:1 19534:1 20761:1 
0.05141313697520704 0 5322:1 5487:1 6196:1 13406:1 15985:1 16146:1 16726:1 20488:1 23447:1 
0.4407438070585527 0.001369476861893517 2705:1 2786:1 5004:1 5255:1 6094:1 6865:1 14071:1 14657:1 15382:1 15975:1 16048:1 21443:1 21806:1 23369:1 23837:1 
0.1288131424606052 0 369:1 2705:1 5063:1 6260:1 6986:1 8164:1 12635:1 14420:1 15041:1 15881:1 21601:1 23282:1 
0.5323417879389232 0 4660:1 7461:1 10533:1 13069:1 16342:1 19259:1 21274:1 22570:1 
0.179651385643948 0.03516217442388173 368:1 3410:1 3965:1 4344:1 6319:1 11690:1 12038:1 14921:1 19416:1 23104:1 
1 0.2981983406792646 3320:1 3849:1 
0.2211947693683471 0.00696855753626591 1630:1 5141:1 6199:1 7245:1 9847:1 11228:1 15587:1 
0.1603000310848307 0 2330:1 6010:1 11957:1 14414:1 14960:1 15655:1 15881:1 17969:1 19285:1 19832:1 20165:1 
1 0.6250256920496303 1326:1 
0.1811178694427016 0 1478:1 9249:1 14545:1 15881:1 18565:1 19435:1 
1 0.06572798996585824 6130:1 6986:1 18497:1 22917:1 
0.05634645898373023 0.007120839851584245 214:1 1331:1 1391:1 2483:1 6387:1 8216:1 10085:1 12182:1 17095:1 17322:1 20200:1 
0.09078264917066747 0 4093:1 4627:1 5578:1 6035:1 6401:1 8139:1 10214:1 14295:1 17516:1 18514:1 19915:1 21178:1 
0.504577735932481 0.01716582480153168 3492:1 8277:1 11806:1 17230:1 17587:1 21047:1 21472:1 
0.66232744359194 0 3507:1 7088:1 7940:1 17585:1 18663:1 20279:1 
0.3439586518017733 0 3006:1 4787:1 7911:1 12523:1 14504:1 16149:1 16191:1 23737:1 
0.3677004021987916 0 10650:1 14889:1 16726:1 21256:1 
0.09227095030861532 0 1774:1 2904:1 3668:1 9135:1 14078:1 23778:1 
0.6405138677639547 0 5984:1 6738:1 9298:1 16626:1 
1 0 780:1 12453:1 14420:1 15332:1 15881:1 16849:1 22997:1 
0.7865268161215191 0 5286:1 6763:1 19167:1 22104:1 22187:1 22609:1 
0.1815044607405643 0 2558:1 5347:1 5709:1 19167:1 19716:1 22212:1 23252:1 23589:1 
0.6397104978783147 0 1077:1 8875:1 11729:1 15881:1 17629:1 18900:1 21330:1 21462:1 
0.07494538685452072 0.01931123920682208 58:1 2833:1 2928:1 4279:1 6466:1 7984:1 8026:1 8208:1 8497:1 15208:1 21945:1 22594:1 
0.1409664734931284 0.01507863441129302 973:1 1631:1 4771:1 10055:1 11601:1 16045:1 18538:1 19160:1 23034:1 
0.5907713668923527 0 5322:1 9083:1 15337:1 16146:1 16626:1 16726:1 
0.6351101629252453 0.1540849963780452 11284:1 17443:1 20951:1 
0.1419319647558963 0 4274:1 10247:1 10582:1 14893:1 16574:1 16626:1 
0.2961065532049679 0 13979:1 14820:1 19167:1 
0.2564445338260423 0 236:1 335:1 370:1 1978:1 3264:1 5524:1 6462:1 6986:1 8455:1 9538:1 12913:1 16309:1 17192:1 19242:1 
0.4434570815134473 0.09584778397316546 1023:1 3322:1 6932:1 7070:1 7356:1 7866:1 11935:1 16506:1 18437:1 22428:1 22733:1 
0.3804458221573899 0.0537842784282478 5255:1 5533:1 6746:1 14125:1 20703:1 20923:1 
0.0569992912868405 0.06850449257658925 1259:1 6141:1 15589:1 17020:1 19232:1 21518:1 21697:1 
0.006919919019196554 0.2007890954420126 9523:1 9543:1 10265:1 13937:1 14462:1 15588:1 19483:1 22153:1 
0.3088589839930347 0 1189:1 3905:1 6746:1 6987:1 7101:1 12089:1 13020:1 14657:1 16324:1 19053:1 21763:1 21817:1 
0 0.02850660300101881 654:1 4948:1 5778:1 6615:1 19380:1 19974:1 22187:1 22315:1 23029:1 23594:1 24165:1 
0.4047065737612911 0 2783:1 3238:1 6378:1 8667:1 15881:1 
0.5461542370756342 0.2826304675001373 6451:1 13796:1 
0.2034119883708736 0.1206975779128929 3349:1 8262:1 14889:1 16682:1 18565:1 
0.1550365607223533 0.03654218529094943 2590:1 4787:1 5524:1 5533:1 12685:1 14342:1 15655:1 17720:1 19147:1 20328:1 21564:1 
0.1158577114502281 0 91:1 16755:1 
0.5129969024966794 0.4318394583807644 6754:1 10135:1 23870:1 
0.4336201063759022 0.1563088935502522 555:1 8922:1 14175:1 18490:1 
0.01953702752079205 0.003029573370683198 843:1 4444:1 4787:1 6809:1 12189:1 12200:1 12680:1 16121:1 18565:1 20673:1 21665:1 23109:1 23273:1 
0.3303451020658343 0.06088756817671191 351:1 1154:1 2530:1 11990:1 
0.03700995182399593 0 10131:1 13006:1 15281:1 15329:1 19167:1 21503:1 23479:1 
0 0.02327099300314446 576:1 3638:1 3985:1 4639:1 8544:1 
0.2136044431169694 0.1303673816017133 5950:1 7014:1 10120:1 14133:1 14327:1 15404:1 15664:1 17465:1 22161:1 22390:1 23692:1 
0.9272485337404994 0.1132288160418652 2692:1 15185:1 18779:1 20712:1 
0 0.03907975807339609 4639:1 7935:1 8657:1 8904:1 16640:1 19150:1 21914:1 21945:1 
0.1317622259268381 0.1059038904905644 586:1 14043:1 15181:1 16852:1 20516:1 21849:1 23322:1 
0.2313451264615283 0.07525444579888237 973:1 2798:1 3633:1 8888:1 13364:1 17808:1 
1 0.6250359605795078 8697:1 
0.04671926480348516 0 763:1 8118:1 9618:1 12453:1 12575:1 14281:1 14420:1 15159:1 15881:1 16946:1 16947:1 18145:1 19743:1 21165:1 21857:1 
0.332930439394183 0.03559075017920061 2032:1 2998:1 4242:1 7078:1 7149:1 8853:1 9353:1 14768:1 19984:1 
0.250971315787367 0.09134817128264054 1189:1 6351:1 7834:1 9405:1 9586:1 13031:1 18565:1 19903:1 21274:1 
0.4928222818518339 0 464:1 5322:1 6763:1 7373:1 9710:1 12551:1 12678:1 12943:1 15655:1 22595:1 
0 0.1241109448499677 1767:1 1857:1 2558:1 5796:1 7990:1 9162:1 10158:1 11447:1 11792:1 12192:1 12438:1 17747:1 18495:1 
0.3566163590983061 0 654:1 6873:1 14889:1 15881:1 23655:1 
0.02289657444007604 0 844:1 1423:1 6196:1 6252:1 12453:1 14560:1 18608:1 19957:1 21476:1 21631:1 22087:1 
0.0420576885742895 0.02693840722562067 656:1 3292:1 8178:1 10743:1 12403:1 15655:1 17267:1 18990:1 19552:1 19650:1 20125:1 21632:1 22676:1 23345:1 
0.09927865417482103 0.05214723415207082 1189:1 2576:1 3260:1 6213:1 10649:1 13226:1 16572:1 21803:1 
0.2720242873778903 0.01880767316078291 2821:1 9299:1 10853:1 12518:1 14420:1 15409:1 20862:1 22644:1 23845:1 
0.2565876330590137 0 5149:1 5172:1 6970:1 8466:1 15655:1 16286:1 21553:1 22337:1 
0.08661778460071656 0 2705:1 3605:1 4714:1 5038:1 6118:1 8043:1 8502:1 13781:1 14078:1 15655:1 18399:1 20171:1 20861:1 22166:1 23933:1 
0.01921190255690995 0 897:1 1501:1 2700:1 3807:1 6986:1 7015:1 13485:1 16608:1 16899:1 19361:1 23369:1 
0.1928179421492245 0 1208:1 2249:1 5385:1 7264:1 9147:1 10020:1 15584:1 15723:1 20008:1 21647:1 
0 0.08030325772832334 5906:1 6375:1 9474:1 9558:1 23249:1 
0.2327814796779867 0.04194334711896811 1904:1 3669:1 4729:1 10618:1 14155:1 16071:1 16411:1 21658:1 21668:1 
0.443831554800433 0 43:1 3566:1 6738:1 9538:1 12285:1 14414:1 15881:1 
0.2577520090373487 0.07833861642147028 1791:1 8275:1 8983:1 10326:1 11214:1 11543:1 15881:1 21047:1 
0.4399549380816832 0 4869:1 6489:1 12230:1 12885:1 14414:1 15881:1 16149:1 17333:1 
0.1903658333569787 0.1951728126081059 4223:1 13560:1 20254:1 
0.695156428708305 0.2370252771196385 1478:1 13135:1 14182:1 22104:1 
0.01232622350182924 0.1185732024388652 672:1 1943:1 2827:1 3052:1 3703:1 3787:1 7251:1 7318:1 10373:1 12035:1 
0.1043025182284166 0 6196:1 7525:1 10899:1 19357:1 19984:1 20279:1 
0.7322864158590379 0.2860031491268366 9593:1 19249:1 
0.5250652620581013 0 88:1 2446:1 6834:1 11519:1 15881:1 17828:1 
0.7977487058087651 0.204241686246959 5357:1 11365:1 12827:1 19167:1 
0.2233915555673241 0.002336561465659155 6510:1 10261:1 13069:1 15851:1 17048:1 19376:1 20837:1 22104:1 
0.4842807635120292 0 625:1 4828:1 13538:1 14420:1 16867:1 17921:1 20685:1 20896:1 22871:1 
1 0.6236227183947348 6094:1 
0 0.03802848515720372 5877:1 9299:1 10310:1 12878:1 13516:1 22351:1 
0.03865836847864479 0.004678093376781383 764:1 1201:1 1628:1 2244:1 4860:1 5870:1 5970:1 7330:1 7415:1 10919:1 11366:1 12878:1 14414:1 23470:1 
0.09595703098475321 0 4478:1 6746:1 7066:1 23129:1 
0.1276376957791879 0 3043:1 5063:1 6207:1 8157:1 10707:1 11466:1 15332:1 15426:1 16626:1 17178:1 19303:1 
0.1882236632218761 0 1423:1 1671:1 3267:1 3866:1 5706:1 6733:1 12167:1 13087:1 15329:1 19495:1 20939:1 22095:1 22569:1 22763:1 
0.2197489667007206 0 1740:1 5262:1 7048:1 16130:1 17185:1 20481:1 20710:1 23929:1 
0.2229411034962212 0.07017782233670848 7376:1 10340:1 14629:1 15281:1 16414:1 19215:1 20746:1 
0.0986762015424297 0 654:1 2376:1 8699:1 8962:1 10448:1 12782:1 15699:1 15981:1 18608:1 24074:1 
0.6090506613429618 0.03266245697810834 5322:1 6375:1 13062:1 22575:1 
0.3112165782505831 0 3191:1 3721:1 14660:1 15881:1 24089:1 
0.1787331000536644 0 1314:1 1995:1 6837:1 9751:1 14628:1 15275:1 17062:1 18860:1 22319:1 23448:1 
0 0.05261629031670133 1189:1 12055:1 20689:1 
0.5282073781127099 0.1250234134246868 2009:1 3732:1 6401:1 10357:1 20162:1 
0.01205050163459177 0.004927552258421977 797:1 1104:1 2558:1 2834:1 3145:1 8139:1 9849:1 11857:1 13716:1 14991:1 15481:1 17209:1 18777:1 20140:1 20279:1 
0.6930497760415832 0.06735227977899869 11277:1 18108:1 21392:1 22104:1 
1 0.6250041604622462 44:1 
0.4755584457749955 0.04980339620704908 1324:1 5347:1 5652:1 7070:1 8497:1 9430:1 14847:1 16149:1 
0.3047150735966014 0 1280:1 2692:1 6986:1 8728:1 9186:1 10265:1 13391:1 15332:1 15575:1 16509:1 17047:1 20022:1 20058:1 
0.2865630058385762 0.117049828559371 11652:1 16455:1 17883:1 18888:1 
0.4207248985303359 0.1529191643692044 1889:1 8722:1 10310:1 18004:1 20077:1 20362:1 21420:1 24127:1 
0.02090133809215816 0 1227:1 6489:1 7773:1 10635:1 12885:1 14638:1 14852:1 18608:1 20094:1 
0.4991704561750263 0 3280:1 4529:1 4955:1 5778:1 6929:1 7955:1 12389:1 12391:1 18649:1 19424:1 20536:1 21391:1 21790:1 
0.2679243340076196 0 1154:1 10297:1 11323:1 12089:1 13265:1 13410:1 16867:1 18973:1 22639:1 23242:1 
0.2746593073700063 0 1052:1 7396:1 9751:1 11905:1 20553:1 23296:1 
0.5521533474365005 0 3566:1 8149:1 8417:1 10538:1 13440:1 19167:1 21975:1 23038:1 23799:1 
0 0.004658993522508886 6788:1 12363:1 16227:1 22104:1 22187:1 
0.1035105200777664 0 3556:1 3826:1 5262:1 6882:1 11092:1 15881:1 17926:1 18901:1 21647:1 
0.2716441440519732 0 3006:1 6294:1 7325:1 9960:1 10919:1 15844:1 15881:1 17112:1 18565:1 
1 0.6250731824314986 16191:1 
0.02438726945770335 0 625:1 1895:1 3363:1 8008:1 10899:1 13226:1 14034:1 22331:1 23029:1 23984:1 
0.004626526609152952 0.0300541391485438 39:1 3095:1 3178:1 4839:1 9924:1 11336:1 15612:1 15895:1 18355:1 21833:1 22290:1 
0.008838330823343638 0.1196892389708155 60:1 1423:1 6375:1 22613:1 
0.1971732046865594 0.04746572382022077 1418:1 1755:1 4877:1 6103:1 9435:1 13609:1 14007:1 14261:1 17142:1 18565:1 19548:1 
0.01028023542483794 0 5670:1 9724:1 13003:1 13221:1 13721:1 18384:1 18470:1 20103:1 21586:1 22104:1 
0.3590687277358489 0.1875558017433285 18311:1 22410:1 23691:1 
0.1120174719941604 0 1314:1 3913:1 5170:1 9831:1 15251:1 18682:1 18780:1 21047:1 
0.1258953450501303 0 2417:1 4608:1 5022:1 7396:1 17247:1 18093:1 22331:1 
0.05667631132036091 0 2639:1 3270:1 9216:1 13781:1 15882:1 22087:1 22187:1 23255:1 
0.1029607214171538 0.005520726899751534 910:1 1503:1 6137:1 16626:1 17370:1 23322:1 
0.5212680505728905 0.1348068572713545 4462:1 10209:1 10485:1 
1 0 4639:1 15655:1 19167:1 
0.689016138398276 0.1065506146533824 405:1 12558:1 16130:1 22665:1 
0.6978516012225011 0.01425440063442359 43:1 6920:1 12089:1 15400:1 
0.9869748728176724 0.2673303838782162 6319:1 13358:1 
0.7004729727830209 0.3021054973285793 9582:1 15159:1 
0.6057115650271261 0.1266873099585752 7544:1 9387:1 18790:1 
0.2182505670686847 0.1060254986145099 5246:1 8080:1 10265:1 10282:1 11312:1 12305:1 15941:1 18250:1 18565:1 23029:1 23390:1 
0 0.009195288311525529 3533:1 10714:1 17421:1 19873:1 
0.7218751171794564 0 6357:1 14146:1 15881:1 17421:1 24282:1 
0.2315582948643385 0.01384347320307417 1077:1 14043:1 15655:1 15881:1 18611:1 
0.01575458065667788 0 617:1 1423:1 1954:1 6358:1 7201:1 7874:1 18608:1 22292:1 
0 0.01541319341967911 5130:1 6196:1 6666:1 7763:1 10574:1 14620:1 
0.2338793954935383 0 2558:1 3189:1 6394:1 10593:1 15881:1 
0.2895678633995858 0.02306725826674351 1015:1 4843:1 8228:1 10939:1 13781:1 15723:1 18672:1 18769:1 20678:1 22040:1 23169:1 
0.3440657599033598 0 4384:1 5196:1 5322:1 6785:1 7955:1 8742:1 13614:1 15881:1 
0 0.3335122214979967 681:1 797:1 8793:1 20000:1 
0.08001520934616409 0 4283:1 4675:1 5322:1 6881:1 15416:1 17933:1 19053:1 23029:1 
0.2021538507296213 0.02163369138049866 1210:1 1293:1 3503:1 8311:1 10099:1 18556:1 18837:1 20101:1 21567:1 
0.1350698422401243 0 2052:1 3955:1 4272:1 12250:1 12819:1 14078:1 15251:1 15355:1 16572:1 18057:1 19984:1 21103:1 
0.2571954292579533 0.01145915980659306 2013:1 3584:1 6347:1 7846:1 8364:1 10491:1 13825:1 13900:1 17538:1 17972:1 18005:1 19806:1 20735:1 21131:1 21750:1 22344:1 
0.194152090688801 0.04353039366311487 7463:1 8729:1 10048:1 11417:1 15174:1 16484:1 18515:1 21763:1 
0 0.0436959991163436 28:1 991:1 2525:1 3567:1 4583:1 5713:1 14197:1 15277:1 15477:1 15956:1 17237:1 22029:1 
0.2098407175199495 0 1189:1 1692:1 4613:1 10659:1 11772:1 21858:1 23086:1 
0.04975906941027056 0.02000101846427787 625:1 2705:1 8777:1 8780:1 14453:1 16501:1 16513:1 18476:1 22753:1 
0.1101007112398538 0.02644727192913454 3386:1 4093:1 7436:1 8377:1 11025:1 18241:1 18844:1 18944:1 21868:1 22166:1 
0.1891979703230281 0 2249:1 4076:1 6260:1 14289:1 15489:1 15807:1 15881:1 16822:1 18507:1 18565:1 20662:1 
0.238616550343113 0 763:1 2627:1 2682:1 4592:1 4627:1 5504:1 7150:1 19167:1 19834:1 21466:1 21764:1 
0.3656467404944123 0.1325469164184822 3082:1 5980:1 8092:1 12291:1 22621:1 23837:1 
1 0 2639:1 6986:1 18179:1 19167:1 21357:1 
0.4387285886899749 0 215:1 1444:1 6746:1 6788:1 19291:1 22626:1 23468:1 
0.3942156700242477 0.05472680297375414 1747:1 3904:1 4207:1 7944:1 8231:1 9192:1 12362:1 13972:1 16881:1 18565:1 23591:1 
1 0 15876:1 15881:1 19814:1 
0.05000747130346566 0 1478:1 2002:1 4058:1 6659:1 7396:1 7496:1 11109:1 14000:1 15881:1 17317:1 17762:1 
0.08548763042646961 0 7661:1 7676:1 13004:1 21226:1 21857:1 22237:1 23144:1 
0 0.05560550368951807 4608:1 4844:1 15007:1 19335:1 
0.2148490724681166 0.05054474981685334 5174:1 5732:1 7347:1 15041:1 17108:1 
0.630227621809189 0 2430:1 7198:1 13221:1 13870:1 15851:1 15881:1 
0.3419594108455188 0 1189:1 2069:1 6069:1 6375:1 10632:1 17127:1 19167:1 22290:1 
0 0.01195054040213416 1105:1 3829:1 4819:1 5423:1 12494:1 15080:1 15226:1 16004:1 16288:1 18565:1 18801:1 18900:1 21550:1 
0.103699834792005 0.03096585754060779 420:1 2562:1 4881:1 6781:1 8139:1 8469:1 9910:1 13377:1 15281:1 16071:1 18084:1 
0.2874962370846051 0.1849477427243433 6788:1 7110:1 10503:1 12215:1 14143:1 14657:1 16341:1 16377:1 18565:1 21365:1 23587:1 
0.7533206023448213 0.07884700456155491 43:1 3006:1 3375:1 5191:1 7163:1 8487:1 16564:1 18046:1 20625:1 21023:1 
0.2831956797317453 0.03365092603271498 2249:1 10662:1 10721:1 11334:1 12655:1 16100:1 16130:1 17668:1 18639:1 19266:1 19326:1 20485:1 21711:1 22767:1 22964:1 
1 0 3006:1 7468:1 16881:1 18782:1 
0.1349638502029346 0 1214:1 2607:1 8879:1 9497:1 10099:1 10282:1 10574:1 13972:1 14670:1 16424:1 16871:1 18840:1 23615:1 
1 0.1149485785960473 2192:1 8128:1 9500:1 14460:1 15655:1 
0.07975466296193082 0.062060671550261 2855:1 6550:1 10767:1 20642:1 21103:1 22015:1 
0.1136670743565453 0.03354514007081361 1024:1 1749:1 7520:1 7622:1 8815:1 12591:1 14609:1 22436:1 
0.2592782296300615 0 5627:1 5780:1 6901:1 7781:1 8231:1 11229:1 11753:1 12347:1 13240:1 16812:1 17596:1 20703:1 21493:1 22331:1 
0.4272490436521111 0.05492407486355143 4336:1 14013:1 
0.4740016169428875 0 5046:1 8888:1 12778:1 17224:1 20058:1 
0 0.02216681405687819 5789:1 6957:1 9286:1 11349:1 14620:1 19774:1 20254:1 
0.8754466482405153 0.2050101087568217 1728:1 5063:1 8092:1 10978:1 16564:1 
0.4156575095399589 0.04434530813514032 2430:1 2473:1 6019:1 6684:1 14538:1 16883:1 17448:1 18179:1 
0.2337079561979764 0.05345217550760845 7236:1 9287:1 17156:1 20206:1 22350:1 
0.1373248744985443 0 6375:1 8598:1 9147:1 12733:1 15584:1 17231:1 
1 0.3000569264545075 11228:1 15394:1 
0.08337963323166991 0 5063:1 5322:1 10899:1 13184:1 13850:1 13973:1 15228:1 17738:1 19319:1 19845:1 19878:1 20286:1 23640:1 
0.1368074809963822 0 5322:1 6550:1 6873:1 7894:1 12094:1 12646:1 15281:1 16947:1 18608:1 19748:1 
0.05805015278070255 0.07999688543337125 1905:1 4247:1 10471:1 11438:1 14743:1 20572:1 23640:1 
0.1399454509112462 0 3548:1 7296:1 9881:1 10251:1 11416:1 15881:1 16130:1 24291:1 
0 0.08336111716333537 2365:1 5542:1 14456:1 17543:1 23732:1 
0.1520765081024157 0.1167758344125634 2574:1 11421:1 14462:1 20481:1 22187:1 
0.169085515180504 0 1478:1 2705:1 3180:1 5415:1 6093:1 8036:1 8601:1 21975:1 
0.135042887460092 0 969:1 1972:1 2916:1 3336:1 6375:1 7524:1 7662:1 11966:1 17356:1 18708:1 22331:1 22749:1 
0.09452629409515552 0 4844:1 5558:1 8212:1 10108:1 15881:1 16232:1 19678:1 20951:1 22753:1 
0.0134981960484568 0 3520:1 5019:1 8374:1 15881:1 
0.2568702343476604 0.0431197856521414 6281:1 6788:1 6958:1 6987:1 17376:1 17714:1 
0 0.02085406500622334 4237:1 6260:1 15159:1 15584:1 17821:1 21951:1 22434:1 22957:1 
0.2813779307221831 0.2262105698550726 2261:1 2687:1 4241:1 7520:1 
0.09174761512402048 0.07985602593848715 2091:1 5012:1 7070:1 7661:1 9586:1 11792:1 14430:1 15881:1 17396:1 18040:1 19224:1 22187:1 
0.4714633584422207 0.130091473269899 948:1 10021:1 22250:1 
0.4741825696630728 0.09307859269322248 5321:1 7416:1 9665:1 9863:1 10608:1 13771:1 18565:1 19420:1 23945:1 
0.03055217883381563 0.03818513953510014 1549:1 1723:1 4174:1 5144:1 6698:1 7676:1 7714:1 7966:1 7983:1 8931:1 12533:1 13199:1 16065:1 16447:1 19484:1 21419:1 22558:1 22631:1 23479:1 
0.6088561782810603 0 1973:1 3709:1 3865:1 4809:1 5003:1 13221:1 13440:1 15869:1 18682:1 20078:1 20214:1 24227:1 
0.3778823931256432 0.01091788326817665 42:1 9751:1 15193:1 22673:1 23029:1 24179:1 
0 0.06206812497514715 10782:1 10880:1 19224:1 19959:1 
0.1454912601762746 0.01880453303832416 60:1 2692:1 4967:1 6763:1 7376:1 13616:1 14090:1 
0.2164346338600628 0.0450071368001788 60:1 3581:1 4294:1 8239:1 13704:1 15089:1 22104:1 22318:1 
0.3608888070391412 0 1015:1 3093:1 5322:1 6094:1 17150:1 19513:1 
0.5228105676701902 0 11629:1 12230:1 12858:1 15244:1 16442:1 18554:1 19542:1 20710:1 
0.4395586588129563 0 878:1 1699:1 5063:1 18903:1 19167:1 21381:1 
0.05990084718538844 0 2857:1 5572:1 6196:1 8216:1 14889:1 18893:1 21647:1 
0.3808507266871365 0 1012:1 2358:1 6393:1 11783:1 15881:1 16726:1 17828:1 21072:1 23508:1 
0.8254207361788244 0 173:1 733:1 1854:1 2483:1 5255:1 8168:1 
0.2445434105390528 0 819:1 1646:1 2493:1 3506:1 9523:1 13045:1 14043:1 18565:1 19167:1 20678:1 20823:1 23862:1 
0.3130577507010781 0 3006:1 7955:1 8160:1 11957:1 14435:1 15655:1 17329:1 18565:1 23710:1 
0.01959157793535057 0 1925:1 4121:1 4336:1 4824:1 5246:1 6240:1 7729:1 9619:1 10295:1 15676:1 19714:1 20058:1 20280:1 21491:1 23798:1 24048:1 
0.3814571757568137 0.194057116010578 6375:1 8012:1 14155:1 16372:1 19387:1 23942:1 
0.05368569865769225 0 3784:1 4560:1 5652:1 6140:1 6489:1 7429:1 7669:1 8888:1 8941:1 9248:1 12885:1 14520:1 15881:1 16964:1 19167:1 21125:1 21316:1 
0.5231548858870798 0.09937393061652239 1762:1 10099:1 10530:1 10608:1 13398:1 17329:1 18559:1 22593:1 
0.1512742354566399 0 1896:1 5322:1 8149:1 14223:1 14420:1 14954:1 18285:1 20676:1 23171:1 
0.05393035378624705 0 537:1 654:1 1412:1 8898:1 14752:1 14889:1 21767:1 23792:1 
0.1726132099595041 0 612:1 5162:1 11245:1 14109:1 15545:1 16146:1 17357:1 20321:1 23029:1 
0.441725172491083 0.07341612149505816 7508:1 7586:1 13961:1 18682:1 18965:1 
0.2204741500886333 0.01224906906101544 1814:1 2468:1 2477:1 4185:1 7676:1 10335:1 11641:1 21529:1 22879:1 
0.4562516354032983 0.4273499413587154 6260:1 10389:1 23479:1 
1 0 2558:1 4830:1 19167:1 
0.09457584571415252 0 156:1 654:1 1154:1 1880:1 2691:1 5262:1 7786:1 8139:1 12909:1 13147:1 18225:1 20527:1 20925:1 22046:1 23029:1 
0.3616554119338852 0 1189:1 2264:1 5524:1 5873:1 9924:1 10491:1 15386:1 17846:1 19318:1 20327:1 21274:1 22046:1 
0.210093163316952 0.02295983172907639 6932:1 15482:1 16048:1 16887:1 20516:1 24058:1 
1 0 7396:1 14422:1 21500:1 23029:1 23369:1 
1 0.07626203608636235 9924:1 11228:1 
1 0.3023316102234613 714:1 6970:1 11882:1 21553:1 
0.3987187866840278 0.1493432930036661 517:1 3010:1 18432:1 24121:1 
0 0.004042353518865603 9807:1 12485:1 15420:1 15881:1 23171:1 23705:1 
0.1678064468459211 0.008993585885476498 3851:1 6196:1 8770:1 9707:1 10777:1 10977:1 17897:1 23447:1 
0.1731689247177503 0 15881:1 16682:1 17169:1 20364:1 24227:1 
0.161643379445197 0 2238:1 2916:1 4447:1 5832:1 7368:1 7461:1 14657:1 16995:1 19167:1 19331:1 20364:1 
0.3263004971088873 0 3006:1 3937:1 7692:1 8324:1 9530:1 9751:1 11275:1 13400:1 14317:1 17023:1 18478:1 
0.1326332548148101 0 10642:1 13641:1 15778:1 15881:1 16943:1 
0.258884242329198 0.009066932339481491 916:1 2605:1 5063:1 10309:1 18197:1 18257:1 23029:1 23188:1 
0.8726999596044565 0 1678:1 3993:1 5143:1 11543:1 18608:1 20596:1 
0.2419286627583679 0 614:1 1175:1 3492:1 7676:1 8383:1 10399:1 11290:1 12244:1 17781:1 20277:1 21083:1 22683:1 22727:1 
0.6576237986644488 0 5322:1 12718:1 15281:1 15409:1 21728:1 
0.2444374785741927 0.1210126607420783 4298:1 10507:1 18108:1 23442:1 
0 0.03575135015844485 2238:1 5256:1 5832:1 7230:1 7461:1 8888:1 9401:1 14916:1 
0.02466298522113907 0 1267:1 1478:1 2558:1 13536:1 19541:1 21323:1 
0.1747935655773576 0.003650187433477781 1861:1 3492:1 5762:1 7400:1 8565:1 14127:1 17138:1 18055:1 18529:1 22318:1 
0.3021772361328766 0.001624896430664066 173:1 2193:1 3198:1 3219:1 6250:1 6860:1 9168:1 10303:1 10507:1 15670:1 16443:1 18225:1 19008:1 19872:1 22625:1 22937:1 
0.1726421925365917 0.05966634434622543 730:1 5033:1 5677:1 8455:1 14080:1 14677:1 21140:1 21279:1 23765:1 
0.6423254179619616 0.06497715328500667 2049:1 10099:1 11214:1 21784:1 24018:1 
0 0.09544328442052955 2558:1 23369:1 
0.3773305873304427 0.006585050495763608 8609:1 13781:1 15883:1 22394:1 23728:1 
0.05087061153312499 0 43:1 1010:1 2057:1 2501:1 4388:1 10134:1 10693:1 12285:1 16692:1 17699:1 18522:1 19360:1 24215:1 
0.2906458931071009 0.1353512571705662 3500:1 6393:1 7547:1 22583:1 
0.6601034463083055 0 268:1 1087:1 6432:1 7883:1 9824:1 17210:1 18608:1 
0.3425623578229528 0.2097592952030971 10099:1 15512:1 
0 0.02709397860417583 2496:1 7460:1 8005:1 10145:1 10785:1 11820:1 12913:1 22176:1 
0.2805285387057727 0 43:1 1137:1 1592:1 1969:1 4430:1 4573:1 7835:1 7990:1 8313:1 15692:1 16849:1 17441:1 18565:1 20951:1 21178:1 
0.02345365725429709 0.06766891562206373 3642:1 5805:1 8676:1 10343:1 13972:1 16528:1 19761:1 
0.005696583992428119 0 940:1 3813:1 9196:1 12925:1 13620:1 14620:1 18225:1 20573:1 
0.5865583849241108 0 5019:1 8704:1 8727:1 15881:1 
0.2905825719693285 0 612:1 892:1 7649:1 7664:1 8149:1 12064:1 15804:1 20103:1 
0.1845447888916741 0 5591:1 7525:1 7664:1 14930:1 15345:1 16048:1 21529:1 
0.1065800545776957 0.02910706713916069 441:1 3842:1 5255:1 9328:1 9703:1 10268:1 13144:1 13580:1 14982:1 16599:1 17657:1 18972:1 
1 0.3113041309702574 4927:1 14342:1 15427:1 
0.06383533803109973 0.04519188311385797 9287:1 9555:1 13532:1 14620:1 15277:1 15774:1 20206:1 23965:1 
0.1727690302116938 0.08546132225468081 6260:1 12944:1 14620:1 19108:1 19443:1 19757:1 20551:1 23047:1 
0.3002973582625152 0 654:1 1052:1 10484:1 11302:1 12089:1 13463:1 15281:1 20570:1 22145:1 
0 0.1050925386822372 797:1 1767:1 2100:1 5410:1 10605:1 12888:1 16726:1 18782:1 19929:1 
0.3028708439769419 0.07555757739179023 3566:1 5291:1 5624:1 14702:1 21808:1 23223:1 
0.1038184924052484 0 60:1 1189:1 1580:1 7376:1 8455:1 16094:1 
0.4411436524154891 0.06166323687030258 1169:1 1985:1 3026:1 3865:1 
0.284446013234229 0 9558:1 10753:1 13321:1 15881:1 16573:1 17627:1 
0.2946813497412341 0 3097:1 4412:1 7676:1 13522:1 15876:1 16730:1 18565:1 22683:1 
0.1211835342033189 0.02408822662548808 1712:1 8722:1 10624:1 13768:1 14753:1 18411:1 
0.4707395198643079 0 3544:1 3914:1 5796:1 8216:1 11870:1 12453:1 14834:1 14914:1 15621:1 16048:1 21256:1 
0 0.03242456947137287 325:1 4135:1 5038:1 5290:1 6623:1 7118:1 8139:1 9501:1 9957:1 10713:1 11168:1 15325:1 19053:1 
0.04429707138248389 0 385:1 1426:1 5063:1 6410:1 10307:1 13872:1 14033:1 14420:1 15881:1 20497:1 20551:1 21229:1 21249:1 21605:1 
0.1653716112224934 0 2558:1 3472:1 6746:1 6788:1 7088:1 8498:1 13413:1 15941:1 20279:1 
1 0.2500416781140902 7572:1 7664:1 
0.02720258716465789 0 3520:1 6207:1 8675:1 9147:1 9535:1 15881:1 18057:1 21473:1 21707:1 23143:1 23780:1 
0 0.04013213201239176 3562:1 6920:1 10574:1 10939:1 12963:1 14885:1 15829:1 17062:1 23929:1 
0.2820484549538531 0 2502:1 3006:1 4849:1 4912:1 11836:1 18565:1 18593:1 22087:1 
0 0.01018480276151131 880:1 5948:1 6611:1 7835:1 11627:1 12521:1 18975:1 
0.01145827132035409 0.02364917338254698 3865:1 5870:1 7945:1 12428:1 
0.2161464866914993 0 108:1 3550:1 5410:1 15482:1 18565:1 
0.3206878064601425 0.002285772607724967 1104:1 4021:1 8176:1 15812:1 15881:1 16155:1 17209:1 17807:1 19590:1 22966:1 
0.2251558764420709 0 825:1 1751:1 5063:1 7464:1 11128:1 13189:1 15154:1 15689:1 18730:1 21023:1 21133:1 23344:1 
1 0.6250782917341964 15747:1 
0.6393986495766515 0.5049470900909995 4747:1 5410:1 9147:1 
0.1473927788218239 0.03506065460670137 2136:1 2427:1 2663:1 5372:1 6275:1 8095:1 8548:1 10374:1 16852:1 17090:1 20617:1 22046:1 24113:1 
0.3516796270554631 0.04995659853826055 1314:1 2417:1 2692:1 12272:1 
0.2923393957853053 0 3813:1 4618:1 5157:1 7373:1 8854:1 9349:1 9995:1 13972:1 15881:1 23029:1 23288:1 23490:1 
0.6396017035956934 0.1534099769968892 3627:1 5996:1 7460:1 7879:1 16130:1 21582:1 
0.5807387677690737 0.06767170420845538 7676:1 10507:1 13586:1 20573:1 
0.2702237045299243 0 811:1 6154:1 6891:1 6902:1 7580:1 8823:1 10646:1 15490:1 18565:1 22292:1 
0.3548898886587522 0.2823105537094972 867:1 16833:1 18112:1 19489:1 23158:1 24127:1 
0.9834469765931835 0 780:1 12428:1 19167:1 20388:1 
0.1514903967156357 0.0269796223991058 2798:1 2900:1 5574:1 9062:1 13364:1 14743:1 15409:1 24241:1 
0.3453405175508448 0.06105463795997504 513:1 3941:1 5942:1 6393:1 8672:1 10979:1 13070:1 19475:1 20383:1 23029:1 
1 0 1190:1 3006:1 12485:1 23705:1 
0.6426439519131965 0.1166428918158979 3209:1 7933:1 12226:1 13510:1 15202:1 19167:1 19219:1 
0.02374055864012094 0 4165:1 5611:1 10310:1 11404:1 12817:1 14723:1 14885:1 16976:1 21505:1 
0.1314325568393485 0 173:1 3792:1 5322:1 6133:1 12535:1 13909:1 14078:1 14212:1 16726:1 17329:1 
0.2054353422829353 0.03136768182396638 7296:1 8381:1 10769:1 11159:1 15329:1 20103:1 23721:1 
0.4790868085295584 0 5877:1 15881:1 
0 0.01631571967144659 365:1 5063:1 6538:1 8315:1 10310:1 11429:1 14091:1 15417:1 16089:1 16250:1 16852:1 19136:1 21147:1 23579:1 
0.3848287346839336 0.06152529279270885 2369:1 2422:1 4820:1 9320:1 14183:1 14462:1 15429:1 22036:1 
1 0.01344229169366469 4388:1 6196:1 19167:1 21616:1 23911:1 
0.06280506561614904 0 3264:1 5796:1 12521:1 15482:1 17699:1 17897:1 22292:1 
0.2299893422687111 0.03960426830928419 2903:1 7676:1 8926:1 9458:1 10236:1 14692:1 18617:1 22332:1 
0.03018414153157622 0 972:1 1254:1 2247:1 4787:1 5572:1 8005:1 13696:1 15706:1 16349:1 19659:1 
0.1241682380640227 0.1871316118320158 1857:1 4004:1 12551:1 13781:1 14295:1 16564:1 19376:1 21623:1 21750:1 22945:1 
0.1191821013153964 0 60:1 3826:1 6518:1 8578:1 8861:1 10077:1 11404:1 11542:1 14631:1 18459:1 19388:1 19504:1 21178:1 23503:1 
0.07761379122623351 0 4697:1 7398:1 13178:1 15881:1 16643:1 23371:1 
0.1079110767029957 0.06892481749827653 711:1 859:1 8050:1 11173:1 12459:1 12528:1 18104:1 19770:1 
0.08383490415173001 0 5339:1 6754:1 6788:1 7905:1 12252:1 15621:1 17994:1 21162:1 21376:1 23606:1 
0.1415871626820012 0 1031:1 2931:1 6746:1 10099:1 11288:1 16849:1 18860:1 19070:1 20078:1 23029:1 
1 0.06960423783003598 1423:1 5196:1 17062:1 
0.6108245514470861 0 2362:1 7323:1 9143:1 19167:1 24169:1 
0.1066351812143228 0.04398949813420236 1823:1 4645:1 5870:1 12438:1 12525:1 13750:1 14259:1 16601:1 
0.05699925435889087 0.02212372027644718 2505:1 4239:1 7597:1 7822:1 10120:1 13358:1 13747:1 19043:1 19159:1 
1 0.205205234683953 15869:1 22222:1 
0.1291266393168914 0 225:1 3024:1 3721:1 6375:1 10646:1 13840:1 14342:1 15090:1 17141:1 21666:1 
0.5398093549386756 0 3677:1 6403:1 13334:1 15881:1 18900:1 19167:1 23401:1 
0.5455126633340381 0 1154:1 6375:1 8216:1 11605:1 13520:1 
0.2169941384754026 0 2203:1 3657:1 6099:1 6706:1 6754:1 8095:1 9387:1 9924:1 21643:1 
0 0.0084404225006954 1581:1 4558:1 6251:1 6867:1 7525:1 7633:1 19984:1 
0.4276067794388904 0.1940204507658374 2633:1 6733:1 10313:1 
0.1194206446836491 0.02015188035804621 9751:1 10810:1 15332:1 23371:1 23684:1 
0.2659946074544978 0.05093149320201866 567:1 2038:1 2522:1 7332:1 10450:1 15200:1 22717:1 23282:1 
0.09412136470265137 0.103910315172899 11489:1 17739:1 18837:1 20203:1 23447:1 
0.3249956727638118 0 2376:1 6351:1 6746:1 8216:1 15251:1 15955:1 16403:1 20829:1 21803:1 
0.474864399074228 0 1189:1 2855:1 11473:1 11818:1 20908:1 
0.1359492868391343 0.06564607047091914 1791:1 3101:1 12500:1 13781:1 15331:1 17908:1 19938:1 20649:1 
0.3320413306401283 0.07810192008889934 2916:1 3260:1 7818:1 7940:1 9530:1 12192:1 12268:1 12345:1 12394:1 13362:1 13506:1 17636:1 20870:1 
0.08648615174206502 0.07783754315974988 1368:1 5366:1 6763:1 8497:1 14896:1 23606:1 
0.4211758644957537 0 1190:1 2456:1 5289:1 15881:1 16726:1 18999:1 19472:1 20483:1 20969:1 23029:1 23646:1 
0.2931065363963107 0 1137:1 2880:1 3162:1 6552:1 6738:1 6891:1 9973:1 15881:1 16875:1 21229:1 24219:1 
0.3650954980565591 0.05700825588074774 282:1 7719:1 10942:1 13626:1 18255:1 19984:1 
1 0.6249467951348384 12285:1 
0.3876824511547494 0.1663933266410807 2483:1 19937:1 21792:1 
0.2734789806624834 0.04623425726115949 654:1 2146:1 10037:1 12230:1 16048:1 18708:1 20459:1 21852:1 21967:1 
0.2096714859138246 0 5038:1 6455:1 6923:1 8071:1 19167:1 
0.1736629055163757 0.02456191655511045 3622:1 7888:1 9443:1 10099:1 10343:1 11631:1 16384:1 16849:1 17087:1 
0.3062147712153847 0 271:1 2772:1 3638:1 4740:1 5322:1 6829:1 12778:1 16236:1 19331:1 20828:1 
0.07787146449097522 0.06159489283694392 4161:1 8497:1 19166:1 21379:1 
0.4542468554962916 0.05240404115074602 3520:1 4844:1 8164:1 10810:1 24291:1 
1 0.09839770233644969 3947:1 6986:1 10571:1 
1 0.5074748064327231 8216:1 21031:1 
0.002411686724738584 0.005569780572742297 1253:1 2477:1 4646:1 5577:1 6199:1 8160:1 8253:1 8701:1 10487:1 10919:1 14795:1 15609:1 20825:1 22232:1 22621:1 23332:1 
0.346484082833701 0.1392781461495901 1853:1 5576:1 8075:1 10608:1 11415:1 21207:1 23531:1 
0.3375526177476083 0.01799193087639895 2451:1 5480:1 7911:1 11338:1 12291:1 15706:1 15965:1 18426:1 21379:1 24231:1 
0.2434177593072498 0.04553490895094194 7396:1 10295:1 13641:1 14399:1 16865:1 
0.1006081843754036 0 216:1 8737:1 9579:1 13440:1 14859:1 19984:1 21647:1 22411:1 
0.1013745055090368 0 4843:1 5561:1 9387:1 12942:1 14034:1 15881:1 16711:1 17828:1 17977:1 19693:1 21519:1 23341:1 24165:1 
0 0.02943510776074292 972:1 3037:1 3669:1 5455:1 8930:1 13364:1 14840:1 19915:1 22586:1 
0.02040226829756124 0.0497003727546135 910:1 6755:1 14420:1 14885:1 15281:1 18565:1 
0.3890464971913118 0.03738813489922899 1999:1 3193:1 10673:1 10899:1 17224:1 22273:1 
0 0.05316364587015158 1052:1 5170:1 5593:1 5660:1 6375:1 7729:1 8911:1 11221:1 12381:1 21158:1 
0.4029458139684549 0.05778798200999259 504:1 9371:1 12176:1 14414:1 16163:1 20488:1 
0.331675951115771 0.1967883522974453 1617:1 12843:1 18248:1 23572:1 
1 0.3104287386120051 5593:1 12164:1 20299:1 
0.4684460183398206 0 14295:1 19167:1 21373:1 23664:1 23942:1 
0 0.09799824046892425 1412:1 3117:1 17846:1 18057:1 21613:1 21728:1 
0.2800936657701242 0.01701960790379497 7088:1 9443:1 11452:1 13441:1 15345:1 16707:1 17170:1 18278:1 23029:1 
0.2711275658010346 0.1827546406124272 4119:1 5775:1 7936:1 14947:1 
0 0.08849353806201678 2072:1 2558:1 9633:1 11768:1 16711:1 18900:1 21518:1 22592:1 23288:1 
0.7086949684779578 0.2866514194291773 9202:1 20734:1 
0.4621680085650691 0 6680:1 6995:1 9908:1 10608:1 12718:1 23186:1 
0.2447221989100196 0.1042259463907122 2640:1 10660:1 10670:1 17234:1 23091:1 23725:1 
0.1138076736470155 0.03299869550461226 6319:1 8287:1 9578:1 16788:1 17611:1 20412:1 20915:1 21012:1 
0.2482469698110478 0.03506047026660752 1189:1 12667:1 15568:1 21764:1 
0.1410034928046898 0 144:1 1155:1 1205:1 5057:1 5732:1 6830:1 10010:1 12403:1 13281:1 15881:1 
0.1458591816568415 0 2558:1 3848:1 7088:1 8145:1 17002:1 17391:1 21022:1 
1 0.3124123864616943 9889:1 15281:1 18384:1 
0.1657379241074056 0 2352:1 4029:1 5989:1 6385:1 7477:1 11870:1 15161:1 15881:1 17664:1 19249:1 21059:1 23799:1 
0 0.01205065725298793 2053:1 5027:1 5323:1 10537:1 12805:1 12862:1 13385:1 21821:1 21968:1 
0.1682201690829788 0 3566:1 4877:1 6891:1 6986:1 9616:1 10270:1 11481:1 13750:1 15050:1 15881:1 20703:1 22188:1 23029:1 23109:1 23646:1 
0.5155534059325273 0 1154:1 7965:1 11659:1 11966:1 12570:1 17543:1 17739:1 20109:1 23029:1 23216:1 23646:1 
0.2338335789225306 0 7409:1 9083:1 10048:1 10815:1 11228:1 13618:1 15584:1 21931:1 22331:1 22432:1 
0.118372232051774 0.01233430874966647 164:1 370:1 2072:1 2279:1 3865:1 3993:1 6645:1 16686:1 18250:1 20203:1 20473:1 23336:1 
0.3285024888655168 0.1021499280821487 987:1 2479:1 14781:1 17695:1 18005:1 18496:1 18565:1 20990:1 21970:1 22196:1 
0.01864850458797545 0 2477:1 5322:1 5531:1 6319:1 8971:1 9023:1 9866:1 13356:1 16279:1 16726:1 17840:1 19258:1 20553:1 
0.1619095058955324 0.07077163974525991 5256:1 12291:1 14269:1 15914:1 16837:1 
0.1035055889814942 0 8160:1 8654:1 11129:1 11416:1 19167:1 21072:1 
0.8037453314141468 0.1950909239601357 14943:1 15431:1 22063:1 
0 0.001466308561521397 1176:1 2855:1 11543:1 13795:1 16526:1 16682:1 16726:1 
0 0.05299827558827792 8537:1 10346:1 11839:1 14779:1 15425:1 18514:1 23579:1 
0.7864933495697123 0 3849:1 6986:1 13814:1 19369:1 23767:1 
0.964695109870621 0 398:1 18608:1 22087:1 
0.2079736692810213 0 1189:1 3630:1 4608:1 8549:1 9977:1 12439:1 13347:1 13831:1 14021:1 15706:1 15881:1 18565:1 19873:1 20617:1 21380:1 23606:1 
0.1357236441943138 0 41:1 1010:1 4627:1 9558:1 10230:1 15881:1 20539:1 21739:1 22601:1 
0.02944439557499257 0 2276:1 7807:1 9225:1 16130:1 18611:1 19167:1 19884:1 22165:1 
0.01194179076008024 0 154:1 1138:1 2687:1 4625:1 15332:1 15881:1 17559:1 20866:1 21613:1 22997:1 23178:1 
0.6091806317440963 0.05623385178798816 2597:1 2605:1 9848:1 13473:1 13781:1 23646:1 
0.05819961104315657 0 1412:1 5140:1 6733:1 6763:1 7813:1 8911:1 10415:1 15881:1 17585:1 21379:1 
0.1171201858735581 0.02638423492858695 43:1 1322:1 2136:1 8164:1 11792:1 14453:1 19078:1 23896:1 
0.01678417685482988 0 1942:1 3492:1 6196:1 6962:1 11027:1 11100:1 12089:1 13356:1 16849:1 17996:1 20103:1 22411:1 22811:1 
1 0.2552839365964167 7965:1 13221:1 13972:1 14620:1 
0.3614368939406729 0 3730:1 5322:1 6137:1 9555:1 15948:1 16640:1 18608:1 20214:1 21330:1 
0.8288208828712329 0 7236:1 10646:1 15277:1 17219:1 19167:1 19320:1 21596:1 
0.0748412794293777 0 690:1 978:1 2772:1 10964:1 13529:1 14303:1 15111:1 15881:1 18005:1 21226:1 23186:1 
0.105691887499478 0 1154:1 4224:1 4627:1 5715:1 7459:1 8014:1 9558:1 10002:1 13067:1 15238:1 15884:1 17976:1 19167:1 23822:1 
0.4467581372923509 0.1519943903505875 252:1 3492:1 6847:1 16029:1 17200:1 
0.04115689702267149 0 552:1 3972:1 5143:1 6548:1 8563:1 10291:1 10491:1 10637:1 11458:1 15863:1 16577:1 19217:1 23479:1 
0.1538998896024818 0 173:1 780:1 1154:1 4627:1 4973:1 7323:1 7373:1 19167:1 24169:1 
0.1412461025589564 0.0008644157141960902 3538:1 4691:1 10099:1 15655:1 17062:1 17217:1 21763:1 22651:1 23078:1 
0.3879424125252551 0.02973096344975488 1154:1 4582:1 10831:1 22501:1 
0.4533295899846573 0.09600614622184557 578:1 6792:1 10608:1 13473:1 15881:1 
0.3575841922670448 0 156:1 13071:1 15720:1 15881:1 16071:1 20497:1 20969:1 21821:1 24121:1 
0.04166046859318731 0 2293:1 3913:1 6781:1 6791:1 9713:1 17062:1 22904:1 23479:1 23948:1 
0.8263316276361157 0 1678:1 5063:1 6393:1 9960:1 12714:1 18629:1 19167:1 
0.1635859824518148 0.02765431829748739 1568:1 2483:1 8502:1 8916:1 12963:1 16929:1 20949:1 23382:1 
0 0.009759140434337245 1077:1 1412:1 2564:1 4093:1 4275:1 5289:1 6199:1 6939:1 7514:1 11025:1 15689:1 19472:1 
0.1441610284256339 0 4259:1 4868:1 7088:1 7822:1 8455:1 15881:1 
0.055578958964407 0.02539087553154049 1379:1 2136:1 4230:1 6199:1 6214:1 11953:1 12031:1 13696:1 21229:1 22931:1 23707:1 
0.4866932090665084 0.1303100808957948 811:1 6196:1 13947:1 14342:1 20100:1 20792:1 
0.3359478316947093 0.1634199133502833 7447:1 7884:1 9633:1 10099:1 12317:1 14274:1 15790:1 
0.5260835598266586 0 2692:1 4787:1 6619:1 8562:1 17201:1 22315:1 23086:1 23273:1 
0.2127697789538754 0 405:1 6920:1 15881:1 
0.05951264543053204 0.05163724672938144 654:1 1189:1 1750:1 2464:1 2658:1 3703:1 8520:1 13412:1 15050:1 15988:1 20851:1 21274:1 22087:1 
0.6456323167525641 0 1189:1 2376:1 2430:1 2639:1 4051:1 5167:1 6922:1 12089:1 12847:1 15251:1 17543:1 19232:1 21613:1 21803:1 
0.07162916370498168 0 2376:1 3805:1 9543:1 13178:1 14078:1 15800:1 19477:1 22937:1 
0.003515614997059461 0 618:1 4044:1 5262:1 5322:1 5572:1 6645:1 7546:1 11977:1 13387:1 15181:1 16852:1 18214:1 18839:1 19379:1 
0.03867051146349578 0 654:1 1189:1 2447:1 3886:1 8927:1 8946:1 10646:1 12709:1 13667:1 13999:1 14600:1 22525:1 23286:1 
0.2814674382550922 0 1712:1 2064:1 3101:1 5224:1 10727:1 12490:1 14420:1 14620:1 16760:1 17686:1 18311:1 20058:1 
0.660551692285868 0.02542868738706792 8072:1 16029:1 17260:1 20058:1 23535:1 
0.1405289527696876 0 9230:1 14874:1 14982:1 15420:1 15655:1 16260:1 17635:1 17890:1 18608:1 21457:1 22347:1 23171:1 
0.08502546108249039 0 1208:1 1451:1 1954:1 6094:1 10985:1 15482:1 15881:1 18374:1 20291:1 
0.1320238819452692 0.06390356809969737 2259:1 3638:1 3946:1 6358:1 10760:1 11794:1 11937:1 17189:1 17277:1 
0.03681218892550688 0 14:1 1206:1 1391:1 1717:1 3213:1 5582:1 6196:1 6746:1 11601:1 12192:1 13449:1 15889:1 15988:1 
0.2905059081610459 0.1000057280597742 417:1 1627:1 3598:1 6932:1 12188:1 20115:1 21024:1 
0.1027505041625957 0.01895092103193246 3916:1 6196:1 6606:1 11643:1 11995:1 12718:1 16640:1 16904:1 21198:1 23153:1 
0.001505206939181461 0.01254344311065321 494:1 3178:1 4234:1 4538:1 5612:1 6063:1 6891:1 7027:1 8466:1 9971:1 10370:1 11347:1 13592:1 14566:1 15527:1 15609:1 17200:1 17548:1 23115:1 24132:1 
0.03384063129585736 0 2496:1 4613:1 5063:1 6580:1 13763:1 15706:1 18577:1 19167:1 22318:1 22595:1 22672:1 
0.1282441101515719 0 3717:1 6746:1 6891:1 13184:1 16048:1 16146:1 22176:1 22939:1 
1 0.6682774222644538 14078:1 
0.1704026925206305 0 6029:1 6777:1 6913:1 8779:1 17224:1 17336:1 19167:1 19354:1 
0.7646150004851822 0 4418:1 5303:1 5572:1 10414:1 14420:1 15655:1 19167:1 20969:1 
0.1080695826053561 0.07642153131036159 1456:1 2151:1 3043:1 3612:1 4205:1 13479:1 15575:1 19748:1 
0 0.05252363953443209 3489:1 7546:1 10099:1 14119:1 18565:1 
0.2883003782911996 0 2376:1 7819:1 8455:1 12381:1 13777:1 13781:1 14069:1 15100:1 17518:1 23732:1 
0.07985466084428478 0 370:1 2815:1 6667:1 7464:1 7773:1 8170:1 14859:1 18095:1 
0.4176602450325668 0.09314162707107415 10688:1 13524:1 22350:1 22744:1 23178:1 
0.04929587015146774 0.05330445682660839 4096:1 4174:1 4967:1 5850:1 6266:1 7609:1 7676:1 7714:1 7966:1 10417:1 10998:1 13186:1 13199:1 14302:1 14692:1 14985:1 17796:1 18610:1 19027:1 23433:1 
0 0.007682453074885292 2916:1 3703:1 11896:1 13242:1 14420:1 15881:1 20889:1 
0.07340593478860501 0 2091:1 2185:1 4051:1 6781:1 7676:1 17543:1 17893:1 23479:1 23572:1 
0.1697338418778361 0 2503:1 8940:1 9751:1 11349:1 13746:1 15068:1 15957:1 19891:1 20183:1 21256:1 
0.1985467255724922 0.01253386935185807 2151:1 2298:1 5959:1 8875:1 11205:1 16384:1 22331:1 
0.06276052166582692 0 5351:1 6550:1 10662:1 12362:1 12896:1 13351:1 19167:1 21746:1 
0.08205765150845316 0.1226493112267147 1646:1 4064:1 8152:1 19841:1 
0.02014847529277697 0 120:1 1374:1 2691:1 3581:1 6162:1 6336:1 9574:1 13385:1 13781:1 14620:1 14649:1 16626:1 20231:1 
0.2294895692329606 0 577:1 2014:1 2249:1 6666:1 7072:1 8095:1 8121:1 15950:1 16867:1 18358:1 19167:1 24007:1 
0.3304328970081086 0.09776280453358359 3020:1 8466:1 13646:1 14859:1 17380:1 18261:1 18565:1 
1 0 3550:1 15869:1 16626:1 18179:1 20090:1 
0.4691528911846936 0.04739972382766821 345:1 2575:1 6306:1 7460:1 20217:1 21274:1 22046:1 
0.2703588166486068 0 579:1 1716:1 3865:1 4951:1 5133:1 5667:1 9491:1 10822:1 15881:1 15885:1 
0.5832352983558289 0 3492:1 3849:1 6375:1 7776:1 20816:1 22237:1 23385:1 
0.1591846752002368 0 1599:1 8537:1 12089:1 12718:1 16764:1 17564:1 22016:1 23792:1 
